     48 -    25 -    25 -     1 
rmse=  21.1916meV
 -6.218795440827679E-002
 -6.905483763470116E-002
 -5.447730963551957E-002
  7.720519435783073E-002
 -0.352523922246425     
  4.772408513649532E-002
  0.528418513799675     
  0.124789300889754     
  0.156594105422663     
 -1.070237946787563E-002
 -1.252567981483168E-002
  0.120247310082044     
 -4.903531271938187E-002
 -0.385957527398409     
  0.112645732753374     
 -0.154234227685570     
  0.110948352090987     
 -0.253648834276304     
 -0.204441620933960     
 -7.845450129782629E-003
  4.769396093403970E-002
  3.133986097124711E-002
  0.107783330561882     
  3.385440875031725E-002
 -2.714136224570249E-002
 -0.158647781735051     
 -0.199790680894368     
  0.195735508346152     
 -5.562493220616717E-002
  0.219257248305623     
 -0.201472220067959     
  0.111577740267058     
 -0.381411185313199     
  1.262866717674932E-002
 -2.394865875858898E-002
 -0.499710623642722     
  3.730576372262312E-002
  9.857386588716065E-002
 -0.175704569347726     
  5.607006239730251E-002
 -8.960589407536738E-002
  0.320721130729557     
  0.234099286084733     
 -0.168939009802356     
  9.123929154762381E-002
  0.117563471886199     
  3.547200542389729E-002
  5.880737065908197E-002
 -0.254261691177293     
 -0.175859605631202     
  0.247049063623771     
  9.403755105755085E-002
 -3.501850830468572E-002
  0.144657746559398     
 -0.192780003793563     
  0.129839162947610     
  0.297566155106047     
  0.188190765544038     
  3.600050909058984E-002
 -0.236620990666182     
 -0.203579321498347     
  3.188972308298766E-002
 -0.356774218103496     
 -0.141960092441811     
  0.307089542442453     
  7.403568750624526E-002
 -8.807632928695940E-002
 -0.377142445383257     
  0.470252346626351     
 -0.225775395646367     
  0.288412746770441     
  6.276442706514861E-002
  0.212442740335506     
 -0.146869406364136     
  0.159947590024905     
  0.247861219720222     
  0.380779806594651     
 -5.216169964807519E-002
  7.869045861534056E-002
  8.456685058650019E-002
 -0.192519028930169     
  0.178586888425537     
 -0.147855202442299     
 -0.266018206158743     
  0.149622975884984     
  0.113253203672929     
 -0.463937439333974     
  3.924623794090009E-002
 -0.270742423282438     
  0.102033146116847     
 -0.140824916525324     
 -0.100297267308293     
  2.660122877138891E-002
  5.831690496270369E-002
  0.278812637760315     
  0.121457044382636     
  9.453600367177219E-002
  0.265659621546226     
 -0.347671630162595     
 -0.111791498461044     
  0.223937372926507     
  0.273627802546223     
  0.299977088264552     
 -0.252425419151723     
 -0.259857626900364     
 -8.560603249151241E-002
 -9.189526468978071E-002
  0.208833231656398     
  2.608939439459616E-002
 -3.372606358197701E-002
 -0.204354507263049     
 -4.365255820662040E-002
 -0.110235669832958     
 -4.693521298839624E-002
 -0.195379614451716     
  0.201355354208205     
  0.127434101628081     
 -0.119796457264576     
  0.344959842918564     
 -6.651464363427637E-002
 -4.402966679081313E-002
 -0.211438942169746     
  6.696402060224366E-002
 -0.174115757718616     
 -0.187856785525395     
 -0.111388757379270     
 -5.594653427636212E-003
  0.287530467459564     
  0.151792629380046     
 -0.162684885238518     
  8.854725512934174E-002
 -0.112779449932653     
 -0.381242417062845     
  2.958035471976115E-002
  0.174430945665116     
 -2.318760280640279E-002
  0.280189569902736     
 -0.195348717867465     
  0.258377401548063     
 -1.245774282712867E-002
  0.518934326995283     
  9.527948816037377E-002
 -0.128170063966413     
 -0.267345224103370     
 -5.067240597080392E-002
 -5.182125972085033E-002
  4.787417181553377E-002
 -5.776855668276761E-002
  0.331208233416385     
 -1.803847296758406E-002
 -0.290065956485389     
  0.264912130086353     
  7.263508007682845E-002
  0.302852863891670     
  0.140586891210088     
 -0.119458769528794     
 -0.429508614985823     
 -0.181642145865351     
 -0.172081787239736     
  2.717310616733984E-002
 -6.957184347906259E-002
 -0.200656637397337     
 -0.388594001270181     
 -0.231100230770206     
  0.453859135026340     
  0.163531378756264     
 -0.119050328657869     
  0.117811012517293     
 -0.110918585802465     
  6.538155096657562E-002
 -0.245028274297030     
  4.565423782259665E-002
 -0.148236511838987     
 -4.858297327554974E-002
  5.697845608039883E-002
 -4.311123565127029E-002
 -6.083655515303620E-002
  5.395899734440980E-002
 -0.379835418621834     
 -0.154602561093559     
 -0.160519887721356     
  0.228511266684329     
  0.196224445829415     
 -0.357011532380416     
  0.155295125184370     
  0.254657485411753     
  9.677421688568810E-002
  0.166897285710186     
  0.144669754025842     
  0.289046979699977     
  0.211383937972579     
  7.218409544723511E-002
 -0.175550879992796     
  0.266381523080079     
 -0.104862584344584     
 -0.292406254340738     
 -0.123087633681978     
  0.683417574668212     
  0.202468926653998     
 -1.336249435786055E-002
 -9.035295868787528E-002
  9.007884347535172E-003
  0.258218607395862     
  0.238087148315801     
 -0.284802400394159     
  0.151513001495263     
  3.407361577128689E-002
 -0.468334481354205     
 -9.843353421191244E-002
 -5.986026102728477E-003
 -0.105690794144919     
 -1.599230305637940E-002
 -3.372756029813763E-003
 -0.173470690949131     
 -0.290300104624267     
  0.621803461785199     
 -0.305515401812434     
  1.819192967057676E-002
  6.319221291053653E-002
  0.119585560681004     
  0.144371629333058     
 -0.264079124518423     
 -3.250121660778749E-002
  0.198913360548864     
 -0.277615301220583     
  0.106046275833229     
  6.625580313803317E-002
 -0.193122524750732     
 -0.178848290758621     
  0.168755294772170     
 -0.264819546599401     
  0.158583670045914     
 -6.226625956208387E-003
 -6.108341784422655E-002
 -0.147112261315486     
 -9.598790886652772E-002
  0.215493560917771     
  0.300369326960196     
 -0.170351175922233     
  0.205692102764339     
 -0.221169164304282     
  3.788596994847862E-003
  4.957855068492360E-002
 -0.139570283513689     
 -0.236639776243342     
 -0.248760048264178     
 -0.190343302167326     
 -0.226709872873438     
 -4.325553038825288E-002
 -0.172813746861723     
  1.508705211477827E-002
  0.214510878707606     
 -2.101754482613019E-002
  0.124977659617142     
 -8.006581865812377E-002
  3.726491993215184E-002
  2.878307301254210E-002
 -8.563956652291903E-002
  0.301754052385124     
  0.114122837614112     
 -4.754104763674642E-002
  0.219513889127262     
  0.154614006103680     
 -0.282940755206441     
 -0.318266167526944     
  4.362496475977528E-002
 -8.963832974530472E-002
 -0.110123830119984     
 -4.327800651848077E-002
 -8.467807209331396E-002
  0.237523544860275     
 -0.210187874898734     
 -6.582221766621119E-002
  0.190361097548889     
 -0.302506818745857     
  0.141159386771934     
  0.315910088529212     
 -0.139999588796893     
 -0.166319796153634     
  0.419198760732385     
 -5.565838556881404E-002
 -0.275328708916313     
  0.132256188866674     
 -9.612742119521629E-002
  4.603219563342772E-002
  0.156090651097019     
  3.963766278073641E-002
  0.141029521700228     
  0.166854996002947     
  3.003760838222124E-003
 -7.600816021955280E-002
 -0.119556808275862     
 -0.390647039739739     
 -9.143238460362735E-002
 -0.247662883936975     
  0.224941199742882     
  0.326009150321351     
  0.233999963499296     
  0.118546295223357     
 -0.162883658986657     
  1.324932321383409E-002
  0.302611361404065     
 -0.152951030139208     
 -0.308027391630715     
  0.178681657099247     
 -7.698796573450233E-002
 -0.207999938324061     
 -0.133419640594099     
 -6.893676883749852E-002
  0.280616342499550     
 -5.287382661537893E-002
 -0.120637759121132     
 -0.181229349993526     
  9.437071022179727E-002
  0.382994745160314     
 -0.104175677438310     
  0.452810970682968     
 -0.126303402944683     
  5.900170460588710E-002
  0.122129191274270     
 -0.209141037886225     
  7.141856694480622E-002
  0.386466952664964     
 -9.031421440705220E-002
 -0.117651609296736     
 -7.031804746090625E-002
 -1.304584429181873E-002
  0.201948227600447     
 -4.211182066630449E-002
 -7.286921777283191E-002
  0.254087617886023     
 -0.218384540537075     
 -2.288020892526129E-002
  4.915656364470009E-002
 -3.000964807867008E-002
  0.247126284485415     
 -7.970712849802628E-002
  3.174008880127253E-003
  0.341215692325689     
  6.298777328513744E-002
 -0.104467332936437     
 -2.410978897183275E-002
 -0.115349335948708     
 -6.905099080746475E-003
  0.118546787493721     
  6.646795968202236E-002
 -8.946928094755952E-002
 -3.692140439504980E-002
 -6.641604572165156E-002
  6.981707473559250E-002
 -0.134740362687497     
  0.123121404000743     
  4.634920668946228E-002
  0.150684174099435     
 -7.544752930212242E-002
 -0.170428329985524     
  9.366446672565137E-002
  0.100795574345785     
 -0.340951429521465     
 -0.143080961451304     
  0.219173134088672     
  0.460951483274313     
 -9.191554859449438E-002
 -0.172875137876080     
  0.321315732678510     
  0.161144394382044     
 -9.171055743349132E-002
  3.532504424588020E-004
 -1.960970142434790E-002
 -0.199268021419215     
  6.876040975392027E-002
  0.129135351742788     
 -2.417300670240470E-002
 -0.175547531469297     
  0.183946407063344     
 -0.496564107313380     
  4.004644896182163E-002
  0.449791353982813     
  5.385768026647959E-002
  5.203814671302598E-002
  0.179817550383303     
 -0.392190216971181     
  4.326857644787731E-002
  5.334838566292391E-002
 -2.385378733391794E-002
 -5.215326032531728E-002
 -0.240015084271963     
  0.273216614178081     
 -0.121339516132412     
  0.186939918420401     
 -0.238343693558487     
 -0.217976002679198     
  7.603368882338905E-002
 -0.103172376512182     
 -0.183933875268199     
 -0.129669746210223     
 -0.212340146903771     
 -9.441454678209527E-002
 -6.910364134882321E-002
  0.120376994752616     
  5.149148433414121E-002
 -4.558592193035044E-002
  0.241007175216706     
 -0.311976580765905     
  9.904324273736925E-002
 -3.757842489874587E-003
 -1.400807282142528E-003
 -0.114242238427999     
  4.875068914566261E-002
  0.313912851550107     
 -0.211720026040915     
 -4.329957819375172E-002
  0.102645637567813     
  2.442854692060438E-003
 -2.046226347798544E-002
 -0.123199428272503     
 -1.691589680465808E-002
  0.194808987540007     
 -0.177389443363228     
 -9.036757002649246E-002
  2.036395058431391E-002
 -6.674071038382272E-002
 -4.183857623242256E-002
  0.197236538074438     
 -7.188619295498201E-002
 -0.220876742981985     
  0.126657962865158     
  6.439400897058281E-002
 -0.168809860014092     
  8.505474021808064E-002
  0.303217922082584     
 -8.470762501298654E-002
 -0.170122885021098     
 -0.140328434552945     
  0.367143029605606     
 -0.306620382626779     
  0.235971687545817     
 -0.413455416858454     
 -8.334245577189915E-002
 -0.103994337832124     
 -0.338164117920619     
  7.853075993923012E-002
  0.316696208481270     
  0.173491433994261     
 -0.181421239233004     
  0.160373114086815     
 -5.640886824382948E-002
  3.891071897644925E-002
 -7.229615633415723E-002
  1.759646235993847E-002
  2.992521414158494E-002
  7.870484791070861E-002
  0.118873681583346     
  2.552297583894505E-002
 -8.762819643844734E-002
  7.238522030965221E-003
  3.652979871726256E-002
 -0.236949957981719     
 -0.170818281258883     
  0.258747996369213     
  6.085486753360137E-003
  2.302581096930230E-002
  5.492856749973030E-003
 -1.138910599071711E-002
 -3.462763803987050E-002
 -0.164706353618011     
 -0.173545819431029     
 -0.100404199617148     
 -7.487067648780391E-002
  0.128927541846766     
 -8.230799240362731E-002
  6.521876957240993E-002
 -1.597290852274311E-002
 -9.746711769011512E-002
 -9.309149669020071E-002
 -0.215303607609074     
 -3.857475605187542E-002
 -1.752357939622175E-004
 -2.372888235468371E-002
 -2.621437546917340E-002
 -0.155717536641865     
  7.633636029934665E-003
  0.146053494055440     
 -0.180110131420244     
  0.313929374808271     
  0.118384834137162     
 -0.264878300514987     
 -0.221081825428372     
 -0.199569255289147     
  1.197708706999143E-002
 -0.127295675232151     
 -0.201952885732987     
  0.247023837943499     
 -0.196154365125803     
  0.197637212789347     
 -0.128234520881629     
 -2.647922325787724E-002
  6.752021872827092E-002
 -3.591443254801558E-002
 -0.164840759633184     
  5.970619396062000E-002
 -0.246581237036725     
 -2.513151909825514E-002
 -1.935217350363317E-004
 -4.045472891450722E-002
 -3.090333590580117E-002
 -0.141112575233489     
 -5.001269711844154E-003
  0.151664640280807     
 -0.184316469372041     
  9.314542882204244E-002
 -0.213384521864928     
 -3.991910718770320E-002
  0.261767117383263     
 -0.200357570418138     
 -3.776733307202283E-002
  0.230466223399464     
  2.904115787304116E-002
 -0.109030582635806     
  7.504347987985107E-003
  0.417411070462897     
 -0.298805477869529     
  0.210428450071453     
 -0.212551875412526     
 -7.111447335743838E-002
  1.014440773444286E-002
  0.136769809376351     
  0.230895135208071     
 -0.183965256766443     
  2.290030402567244E-002
 -9.005594021656130E-002
  0.107201655557296     
  4.260017189741590E-002
 -0.150700806062461     
 -4.422372572307044E-002
 -0.169635375302733     
  0.106899555842721     
  0.330245650263091     
  0.146156619709201     
 -0.127515913903923     
 -6.339332270859006E-002
 -0.149269242305680     
 -0.105966342615650     
  2.980330808206952E-002
 -4.211960798101546E-002
  4.368780757087057E-004
 -8.925140215805533E-002
  1.532957334376579E-002
  0.131265912911882     
  0.441988902305011     
 -7.694531229199551E-002
 -0.105587351688120     
 -0.146195138273956     
 -7.813879059297535E-002
  5.599078534581359E-002
  0.175951994103590     
 -0.245851118915904     
  0.402754240705458     
 -0.152186287129805     
  2.237106815290802E-002
 -0.116180758567313     
 -0.124145177001809     
 -0.255271718854934     
  8.788583370258808E-002
 -0.170077934407383     
 -0.182487421124358     
  0.204557658986769     
  6.876603716370581E-002
  0.135334748304478     
 -0.175096241228915     
  5.186369441450254E-002
 -4.742731610818718E-002
 -0.151830257662717     
  0.173703495031211     
 -6.462572888778498E-002
  0.117392469401981     
  0.311750183396422     
  0.152042851330528     
 -0.141473665274315     
  0.168194669279020     
  0.143427956549011     
  0.606671184137708     
  0.270400165886876     
  0.132909131790264     
  0.186696337603305     
  0.400395631090666     
  0.247754496329418     
 -0.458575957860361     
  0.336565178798883     
 -2.993835236086545E-002
 -0.251905304346359     
 -0.263467401813595     
 -9.044259565339915E-002
 -0.470578018557753     
  2.722358922369318E-002
  1.630295026939107E-002
 -0.170186397612966     
 -7.673979625658672E-002
  0.117470253783324     
  4.750331146381369E-002
  0.127678679605489     
  0.239221554242560     
  0.248865285816773     
  0.148306569874648     
  0.135500072829093     
 -0.103933123842115     
 -8.464338979250582E-002
  0.272900178504075     
  4.494183638408427E-002
 -0.137469155844435     
 -1.968262406851946E-002
  0.212450145949491     
 -0.229429269330908     
 -0.323233623084954     
  0.189058993181654     
 -0.112576901940505     
 -0.183593728620946     
  4.911108513210256E-002
 -0.154056075572843     
  0.108187016928027     
  0.160682175482249     
  0.256549523790690     
 -0.196001217469145     
  0.270681681241301     
 -0.190589403358804     
 -0.128337803108123     
 -0.130917145267712     
 -7.594283708041759E-002
 -0.256081708931295     
  1.204132341871097E-002
 -7.465111520836396E-002
  0.179522104748199     
  1.670117576445795E-002
 -0.435438451112996     
 -0.106188733394494     
 -5.416610682813928E-002
 -0.194095520372178     
 -9.232612143802594E-003
  3.339917573294476E-002
  1.589554534267532E-002
  0.180980429379474     
 -0.289177849777608     
  0.141266722446388     
 -0.130995520102598     
  0.236861938703520     
  3.868422213613596E-002
  0.121628625976504     
 -0.163174888093592     
  0.101765649125561     
  7.338431873821695E-002
 -0.118185934421821     
 -5.840415812228821E-002
 -9.237811340227220E-002
 -6.441103579490427E-002
 -5.300496818745584E-003
 -0.110274045001833     
  0.205562737784496     
  8.847036062300183E-003
 -0.246704936781404     
  5.868330261029563E-002
  8.432000980772862E-002
 -0.230336082410965     
  2.340450133175274E-002
 -7.178284079217342E-002
  0.160546613346319     
 -7.073752492922036E-002
  7.142262519330754E-002
  9.425970562030166E-002
 -7.317147894213455E-002
  8.493210562883756E-002
  0.227371728034959     
 -7.821519883134178E-004
 -9.554616725067269E-002
 -3.832720520300648E-002
  0.329333442699903     
  0.122031361687016     
  0.326099159705241     
 -9.987285856493149E-002
 -0.506557761576411     
  9.513588396240326E-002
  8.001506253113359E-002
 -0.174689462342317     
 -0.123071876369159     
 -3.694156601466361E-002
 -0.177582046388059     
 -0.137048637497308     
  0.198443109995413     
 -3.537190291552567E-002
  8.058900296868025E-002
 -5.586461760038183E-002
  0.246705783879881     
 -0.105026776255548     
  0.274179449584234     
  6.767271520555622E-002
 -4.351381437950506E-002
  4.053851630374834E-002
  0.228436040918107     
  0.269785691243806     
  0.317496055736860     
  0.201741419306445     
 -0.184777836197570     
  0.121477230560002     
 -0.163805234730781     
  9.789528498268103E-002
  3.076802461123277E-002
 -0.141761173329505     
  0.134991173178279     
  0.152459677597380     
  7.718953505766563E-002
 -8.303607200005064E-003
  8.537801402771443E-002
 -9.797938216456092E-002
  3.873383298994583E-003
 -0.151893119963565     
 -0.409372110001295     
  1.463779688321540E-002
  0.102292054975233     
  8.651612918369225E-002
 -0.237080879047242     
 -3.038726004089771E-002
 -6.500891064106933E-002
  0.225019298242768     
  0.265368123543210     
  0.192152255204643     
 -0.140242371000277     
 -0.280484522177150     
 -2.834785456391238E-002
 -3.817623861393529E-002
  0.235408436996146     
 -0.172549777652955     
  0.125346523518042     
 -0.159214439718840     
 -0.105347289678601     
 -0.410254693240811     
 -0.113526216886995     
 -0.237287445925213     
 -0.248824378389953     
 -9.798057441720322E-004
  7.831164335978838E-002
  0.360540034038710     
 -0.214184333406633     
 -1.920650864278755E-002
 -2.330154948905137E-002
  0.259111111855145     
 -7.190776510466189E-002
 -0.354364833333626     
  0.311194308669793     
  0.109490843341386     
  5.808362229116178E-002
  0.138492542342968     
  0.149794301878879     
  6.591966392260215E-002
 -0.361178394222236     
 -0.247918202859239     
  9.176309378875276E-002
 -0.295862735729772     
  0.323393408827105     
  1.514378301949460E-004
 -0.173460860584617     
  0.211244544225391     
 -0.140155607027460     
  0.198131560631999     
 -6.134730549334988E-002
 -6.844883397165663E-002
  0.307558330477456     
  0.108854351038051     
 -6.814821169675231E-002
  0.181814947157664     
 -0.275491139739352     
  7.821649355302819E-002
  3.788545764877321E-002
  7.259611629459171E-002
  0.286664185513214     
  0.165245470482116     
  0.461076350329684     
  0.104228554332720     
  0.175344763296705     
 -0.387410329426627     
 -2.794273897412933E-002
 -8.134589786977499E-002
  0.202265648264540     
  0.341007872104729     
  0.211357196592618     
  1.527356263487304E-002
  0.119088031713768     
 -0.206022065016959     
  4.044414449809803E-003
 -3.277605677035950E-002
  0.400037872297659     
 -0.230279690957743     
  6.603455682513763E-002
 -5.792489000171581E-002
 -0.187539471514548     
  0.122494914947378     
  0.478894338735262     
 -0.101524683646040     
 -5.775399983418914E-002
 -0.327178853104960     
 -0.241570352292011     
  0.164918248117645     
  0.163225530589848     
 -0.132106935965968     
 -0.100602932914496     
 -4.348604378665036E-003
 -0.190031119469334     
 -1.966601519317667E-002
 -0.136085159471022     
  0.107913183462231     
 -2.765883621185916E-002
  0.152253789127702     
 -0.119525062554568     
 -3.210380272612314E-002
 -1.314604106142633E-002
  7.239189138767257E-002
 -0.297827865004325     
 -0.146653115317733     
  0.311610465336807     
 -0.338587425433748     
 -5.715822492397273E-002
  7.447451165537686E-002
 -0.147641371327327     
 -3.500461751454849E-003
 -0.322936108992813     
  0.450567213449687     
  2.225675313205833E-002
 -7.221675776985764E-002
 -0.276392612766471     
 -6.694026323371178E-003
 -0.118509769611113     
 -0.126384678128986     
 -0.362527414153557     
  0.132734145535301     
  4.776941951837656E-002
  1.973267512315197E-002
 -0.226650591239635     
  4.264012931464212E-003
  2.210650731100545E-002
  0.147094165194884     
  0.203406535174474     
  1.741151204975338E-003
  7.614166250217623E-002
  0.414241628338301     
 -0.119666487809786     
 -0.121412919722496     
  9.582463144782880E-002
  8.393457409111295E-002
  8.172113533070068E-002
  0.101121836172598     
 -1.395284260429725E-002
  8.842817816797420E-002
  3.078738634974646E-002
 -0.151358616613295     
  6.754962856147562E-002
  7.158835780823800E-002
  0.104375192728811     
 -0.110996002927373     
 -0.167623897343200     
  0.149695693324519     
  9.467995344822963E-002
  0.144389844229591     
  0.123206390515211     
  0.104016833127108     
  0.202533471812909     
 -0.220060421903053     
 -0.179234565282738     
  1.461525961283502E-002
  1.687859953652398E-002
  0.228891296962871     
 -0.128139819950903     
 -0.190300630094635     
 -8.030480843216638E-002
  0.371233506363009     
 -0.105995408169576     
 -0.254947620540589     
 -0.181543115418378     
 -0.237175363628442     
  0.131312507873690     
 -5.054037988330184E-002
 -0.163439237355326     
  4.933166610930925E-003
  6.077273611095627E-002
 -0.247928873775227     
 -0.184552212390119     
  6.070783399338944E-002
  9.474523665017028E-002
 -4.534451944647754E-002
  0.131835107797371     
  2.424304885082407E-002
  6.016764096214356E-003
  0.121210707093253     
 -7.549982853738797E-002
  8.194064418337366E-002
 -6.877132894821378E-002
 -0.129219758596505     
  0.180171471386833     
 -2.841611188739926E-003
  0.147561165552434     
 -0.222328124847691     
  4.990331395696726E-002
 -0.179158406884135     
  0.322156900967077     
 -0.213316740575127     
  0.102682383152489     
 -8.189491820445063E-002
 -5.635707149945240E-002
  0.266783816518057     
  5.862835419200236E-002
 -3.925546154718767E-002
  0.148518455431302     
  0.129225625159662     
 -3.848640336229521E-002
  3.445420930803738E-002
 -0.111889766591431     
  0.386067110077091     
  6.549482785522460E-002
 -0.480458209089683     
  0.144021288729483     
 -0.175700674109800     
 -0.168336292673441     
  2.210224412084826E-002
 -0.214982454013542     
 -0.350545370904251     
 -6.913537202007940E-002
  3.241064599875507E-002
  3.244087140351919E-002
 -0.135304162021745     
 -0.250402851586400     
  3.330212438013347E-002
 -0.199778541427752     
 -0.250628625596966     
  7.688991038243108E-002
 -5.958346926560883E-002
 -0.280495519678817     
  6.176321213001609E-002
 -0.390065540985777     
  6.345666057872404E-002
  0.223976703307459     
  3.036563219841124E-002
 -8.680343889426917E-002
  0.130152986925990     
 -6.314795936571677E-002
  0.306899924224281     
 -0.203762917943376     
  0.243561685931846     
 -6.177785738966517E-002
 -1.461923113937724E-002
  0.148558972773410     
  0.564265725493357     
  0.244966457845632     
  3.550085716102751E-002
  0.239322426725642     
 -4.071433602580075E-002
 -0.140052141894095     
  0.303538260332579     
  2.439593252521376E-002
 -0.118005146828400     
  6.246947128433636E-002
  6.900925723935622E-002
  0.163313396478992     
 -0.241996180472676     
  1.807210788945526E-002
  2.873168071316714E-002
  0.259498719626201     
 -9.511492221954430E-002
  8.209750274040749E-002
 -0.560675947521387     
  0.155836034608771     
  2.521002993798717E-002
 -0.141089222823313     
 -0.171355583410402     
 -6.852643217458317E-002
  0.204224582688883     
  0.388944566444222     
 -0.155155134640335     
  0.396167728711593     
  0.145646806847036     
  5.125151973142972E-002
  9.662500417918818E-002
  0.228913483387617     
  0.159025207704829     
 -0.140312217517221     
 -8.687017629444117E-002
 -0.344762934356941     
  0.121244153331083     
 -0.209602543602500     
 -0.141849605586967     
  5.967233226444485E-002
  0.135207838059787     
 -0.274398106322269     
 -5.718037029278444E-002
  0.112272176142682     
 -8.956062922242057E-002
  6.657639836194051E-002
 -0.105947064617690     
 -1.841553544158375E-003
  0.326073190482803     
  0.123217995092893     
  0.285736274303219     
 -0.335926135232312     
  0.193821009768292     
  2.034874306361678E-002
  9.271386517453216E-002
 -8.129709009851896E-002
 -0.186451660856282     
 -6.240160181698619E-002
 -0.274681651309836     
 -0.267978235275383     
 -0.130100648534223     
  0.289182377403284     
 -0.320060611641685     
  0.193861139552867     
  0.261953848466568     
 -0.330827150887067     
 -0.116989332594308     
  9.978386525373309E-002
  0.102206075262146     
  0.215231493251449     
 -9.641746006386763E-002
 -0.374945888129681     
 -0.386649455504782     
  6.327842956247268E-002
 -4.988305490325987E-002
 -0.402276615164167     
  0.143448388828368     
 -6.486255112499285E-002
 -0.218815029063712     
 -0.207218629399124     
  9.823979384592546E-002
  3.727201898877991E-002
  2.081185531140333E-002
  0.206245131108980     
 -3.943086041038391E-002
  4.861569166026432E-002
  0.150244482613507     
 -0.153920270021986     
  0.262647598930097     
 -0.291231856593705     
 -4.564354432644595E-002
  0.215999636574608     
 -2.896313625746995E-002
 -2.449398098550235E-002
 -8.632810876625643E-002
 -0.200973782040183     
 -2.389496396242228E-002
  0.120631621127462     
 -0.318193351515149     
  0.141412132815520     
  2.694562970110849E-002
 -0.339128266999088     
  0.250189303452178     
  5.586933620843049E-002
  4.096619419508779E-002
  0.156993077077022     
  0.290105848481707     
 -4.422572902959432E-002
  7.393491367209619E-002
  0.196472342715456     
  2.152089504785853E-002
 -0.333061008642531     
  1.543567892283585E-002
 -4.595544294674835E-002
  0.302451843100333     
 -5.411595578355693E-002
 -0.241061807282822     
  0.411133244761685     
  0.171587941180425     
 -0.278356694365918     
 -0.120222773472357     
  6.341875906235143E-002
 -0.222841949856817     
 -0.171374205056985     
  5.100399880392282E-002
  0.148331712961765     
 -8.457956768759954E-002
 -5.668750658381466E-002
  1.678411276934742E-003
 -0.302377024827230     
 -0.313354654453962     
  0.401690408222787     
  0.164519812244774     
  9.950784660633283E-002
 -0.117959621750046     
  0.245825479402245     
 -1.649811741365369E-002
 -0.371104792534229     
 -0.233700186955537     
  0.169384107972183     
  0.150345380240803     
  0.111474601956159     
  0.310411711558163     
 -2.363891015742725E-002
  7.537087010513495E-002
  0.230596008182727     
 -0.135891120571800     
  1.794662036479580E-002
 -0.141110064234952     
  2.152026251567378E-002
 -0.436539226901855     
 -0.240457472355231     
  0.366135550114411     
  0.290886649608358     
  0.302748428127836     
 -0.166059130907812     
 -0.156597357333318     
 -5.795343968714508E-002
 -0.173795696070511     
 -0.184419662389618     
  0.225806571878933     
 -0.244788932941336     
 -0.186912864481422     
 -0.183235155191006     
 -0.204116740431285     
  4.764563573969568E-002
 -0.133709521777925     
  0.157233933844992     
  0.260510114237067     
 -8.494011199455048E-002
  0.204411388651764     
  0.274115228684829     
  0.102345958432867     
  0.397621459854677     
 -0.107891932706150     
  0.110399519784618     
 -0.495881536147624     
  7.801197061291870E-002
  0.215245196916108     
 -0.289003072508700     
 -0.274494203711254     
  9.790640606575871E-002
 -0.200663425203492     
  8.977223061780616E-002
 -0.208194749399589     
  3.733012268689563E-002
  0.184102415159587     
 -0.264304515143806     
  5.672213284818079E-002
  1.870075464042083E-002
  0.270673501316436     
  0.208151033790956     
  9.817987213465362E-004
  0.297717677736416     
  0.124602849504601     
  0.101815562100842     
  0.124397514618899     
 -0.219091559857077     
  0.231165130067853     
 -7.813070297168377E-002
 -4.194270600253416E-002
 -0.245057549288368     
 -0.206631452007863     
 -1.343155857013615E-002
 -0.282487521277845     
 -2.892510890879016E-002
 -0.181608190797825     
 -0.322310945723168     
  0.118570450041467     
  0.152207201792574     
 -3.838425186171098E-002
  0.178015825569636     
 -1.071606849493716E-002
  8.379428160572194E-002
 -0.102486252276015     
 -0.131467221826064     
 -0.104756534467792     
  0.280049256478589     
  7.192247024909300E-002
  0.509343708247929     
  0.130177425139091     
 -0.123676937194645     
  0.224001225076381     
 -0.277385316439003     
  1.063334517082827E-002
  0.420454647708846     
  0.263876940765897     
  0.211735347157305     
 -7.172223723103763E-002
 -0.126501027725908     
 -0.193256107461710     
 -0.110431952563968     
  0.345360601572586     
 -9.910695504607223E-002
 -0.125811999422153     
 -0.215014205200360     
 -0.243386331650319     
  0.270562992093497     
  4.783065396824693E-002
 -4.140770060749626E-002
 -3.659055865596104E-002
 -0.529225883341568     
 -8.155289691807869E-005
  0.479990733618053     
  1.609760678551959E-002
  0.323669458530455     
  0.252485759962838     
 -0.271353834152975     
  7.355723717744746E-002
 -0.354238072252238     
  3.585990574123048E-002
 -0.145443658096120     
  0.115413759416903     
 
 -0.198068115287601     
 -6.846120438724793E-002
  8.150376517600244E-002
  0.201830469396126     
  1.970248183594590E-003
 -0.283822352861710     
 -0.327443634848114     
 -0.503958329940868     
  0.412762124621297     
 -0.146935959340836     
 -0.190222992554924     
  0.153442763970207     
  0.237949827833867     
 -0.201449329279934     
 -0.210442192684826     
  0.191083921074547     
 -0.235802137701283     
  0.379811479954872     
 -3.244736720582934E-002
  5.042518011508047E-002
 -8.348565182338133E-002
  0.176412625985734     
  0.301700067867153     
 -0.101614309562228     
 -3.052692913482343E-003
 
  0.188385883467352     
 -0.327366198789548     
 -0.505664992711297     
  0.160266562853653     
  9.678409246072636E-002
 -5.895230037002959E-003
 -4.059745361169111E-002
 -0.273914812498950     
 -0.183698588040925     
  0.248957306530644     
 -0.232300918395368     
 -3.123341373972694E-003
  0.130310275509593     
 -0.119158056094896     
 -0.236675653183963     
 -0.155683785939959     
  2.326976911626092E-002
 -0.139361909988354     
  0.230679870873739     
  8.651398961883976E-002
  0.183617098029525     
 -0.151408511224196     
  0.234659397069686     
 -0.219188215106849     
 -0.318771772527559     
  0.434483389865147     
  0.312770622235226     
 -1.706777312680432E-002
 -0.468748372360386     
 -0.255976694437814     
  0.115878974573360     
  0.177264873360789     
  8.585376327831389E-002
  0.292537587018909     
  9.580242060455792E-002
 -0.453789965156985     
  0.586955015912281     
 -0.104457197327330     
 -0.166761355068062     
 -0.233237639383306     
 -0.129801860827815     
 -0.238730413088628     
  6.927205185380271E-002
 -0.594871001599375     
  0.279819965050761     
 -2.759690615703662E-002
 -0.338781698647530     
 -1.513989952143379E-002
 -0.216964047546925     
 -0.382141755577820     
 -4.518454833358006E-002
  0.216435921722111     
  0.304567772993477     
 -0.218710811442276     
 -0.265769185137920     
  0.133465162862078     
  0.312330774161804     
 -7.813533723887228E-002
  0.367638432730420     
 -0.190651760105296     
 -0.130248176027063     
 -0.109362682738114     
 -1.424379363255336E-002
  6.325754755266326E-002
  0.126167357426063     
 -3.248711681503916E-002
  0.243443516705114     
  7.746824358106677E-002
  0.362192723341520     
 -0.793627579767857     
 -0.345376427041567     
 -9.054467504044619E-002
 -3.068898624082792E-002
 -0.134099990643283     
  1.352339309463482E-002
 -0.470215220538284     
  0.167426317003702     
 -0.350627384647662     
  0.149256695554402     
  0.611328003612582     
 -1.039268854834106E-002
  0.121825995893759     
  1.491886911004101E-002
 -0.537531914799975     
 -0.206753122072506     
  3.830727428968271E-002
  0.578257882765853     
 -0.279464610274946     
 -0.115782941950308     
 -0.385668229351843     
  0.146332519696826     
  0.360023067126705     
 -0.188369873456401     
 -4.868447087748713E-002
  7.430895322461360E-002
 -6.440448803182888E-002
 -0.411606159325420     
  0.345352146775468     
 -0.165432496507103     
 -0.101525422644887     
 -0.277784170628568     
 -0.104689676081792     
  0.830934914573745     
 -0.204536220554644     
  7.425242454062718E-002
  0.162097783905279     
  5.569384935334347E-002
  0.241759318159868     
 -2.311417896877249E-002
 -0.446245898893201     
  0.618814216087118     
  0.139577271705051     
 -0.287784286688075     
  5.427729212177287E-002
  0.571939184917297     
 -0.108753830051194     
  8.359629505630692E-002
 -0.253470585215156     
 -0.111347510150748     
  0.169107010223510     
 -0.121829722412816     
 -9.994113649347522E-002
 -0.119599815893795     
 -0.394709187748812     
  0.360311995295116     
  0.381817809073825     
  0.357703117062248     
  0.331504552383050     
 -0.190125952626653     
 -0.216654894028359     
 -0.162909378408138     
  0.303639460657644     
 -0.325841030304866     
  0.205738411791224     
 -0.402138337745316     
 -0.333057469067820     
 -1.056767007382199E-003
 -0.180069373333137     
  0.173214724584563     
  0.266202855599847     
 -5.059057970583195E-002
 -0.296477780731508     
  3.026614852116769E-002
  0.336332299500759     
 -6.353467006539709E-002
  0.253516097633674     
 -0.371449201240373     
 -6.074546210548069E-002
 -0.288527569169691     
 -2.392607058276817E-002
 -0.146156734249973     
  0.353474750353301     
 -3.777556633238328E-002
 -5.887784876857950E-002
  4.923221035470725E-002
 -0.411682777802868     
 -0.314608390716356     
 -0.591953961735712     
 -0.597127980030734     
  0.164399210495237     
  0.141670714105324     
  0.176596806588029     
  0.293817758919490     
 -0.153960459399575     
  8.426347565818294E-002
 -0.211898576176758     
 -4.363482318878029E-002
  0.398675275724411     
 -0.218878840774448     
 -0.233616570721924     
  0.425915536280251     
  0.126918868429838     
 -0.313133278414731     
 -0.116420951942228     
 -0.160221118703966     
 -4.419274423949529E-002
 -0.341722104506157     
 -0.351773389081379     
 -0.125509571057480     
  0.375025768080028     
  0.131575786136054     
  0.256227792391463     
  9.924300465757301E-004
 -3.012429216120272E-002
 -0.372299764262947     
  0.174199616968230     
  0.360413695375091     
  0.125907153173306     
  4.373487108495869E-002
  4.817642041721162E-002
 -0.448082900360346     
 -6.954648239727537E-002
  7.051514320972949E-002
  0.237593299619579     
 -0.200064569865293     
  6.151414340618459E-002
 -0.128108965011557     
  0.229043394955197     
 -0.286609606306083     
 -0.358867006993501     
 -1.051621966373000E-002
  0.490702704295600     
 -0.287703410332219     
  3.696289875730888E-002
  8.767114592129832E-002
  6.477418950446941E-002
 -0.389836769830629     
  0.156088005076673     
  0.543004693927335     
  9.830575782347879E-002
  0.335894982019446     
  5.551012676576472E-004
  0.266470471491043     
  0.167484088690096     
  0.101950256432136     
 -0.133289482612872     
  0.555212961137917     
  0.423182138261375     
 -0.316983330101864     
 -0.224139846106579     
  0.200695988874903     
  7.824109341855354E-002
  4.609780448267118E-004
  3.563471325906382E-002
  7.933122899306806E-002
  1.078040366634993E-003
 -0.192333917495317     
  0.498606428469190     
 -0.165835320743579     
 -6.952071655682102E-002
 -4.913176586604696E-002
  4.191447844397702E-002
  0.289154484781595     
 -0.198195957015957     
  0.239605788115607     
  0.185037597040169     
 -5.831235858363357E-002
  2.781054183114352E-002
 -5.209011814484951E-004
  0.672640600109896     
 -0.444693391680842     
 -0.221895893632449     
 -0.223235973950124     
 -7.894568972456706E-002
 -0.110318578657712     
  0.208002211348952     
 -0.282112132126236     
 -0.222354366480777     
  0.424328484211122     
 -1.390260132281162E-002
 -8.328059474107370E-002
 -0.139780302949969     
 -0.252474421712331     
 -0.310920747398922     
  9.986012589443180E-002
  7.714160770143973E-002
  0.216594777333318     
 -0.101056778707292     
 -0.461095919144534     
 -0.287189802313230     
  0.448843779414932     
  0.391753588602486     
  0.191714031991598     
  0.224659141452981     
  0.118678452763050     
 -0.441236819619713     
 -2.477459018484586E-002
 -1.963405606164473E-002
  0.122642114961736     
 -7.319219632752308E-003
 -0.106372195662142     
 -9.298595318360889E-002
  0.199405327676908     
 -0.309055291206939     
 -0.297341685619230     
 -0.576462937824741     
  1.362871203334125E-002
 -0.209422994702431     
  0.251290842558421     
  0.150442594927030     
  0.201973416062216     
 -0.156922127253332     
  0.266922297756105     
  0.149781332159874     
 -0.359737817827088     
  3.549110026869481E-002
 -0.195482511827775     
 -5.802828273308931E-002
  0.118745512239762     
  9.560224613655904E-002
 -8.480844957579488E-002
 -5.722734322544875E-003
  0.351951045177095     
  0.332821520363339     
 -0.116212207395627     
  0.243421330270134     
 -0.257827965527864     
  0.268427385406891     
  0.262363355873524     
 -2.528208451649286E-002
 -0.185641631068272     
  5.654160444979815E-002
  7.384950648723630E-002
  0.260971729021700     
 -4.085473903646684E-002
  0.156193207423248     
 -7.246087166578083E-002
  0.238165707634340     
 -5.434686125803247E-002
 -0.188569887576800     
 -0.264014261204080     
  0.230427586965772     
 -7.842161484733975E-002
 -5.032620132079518E-002
 -0.172364322686209     
 -0.170566997883829     
 -4.207837848407956E-002
 -5.066982415087010E-002
 -0.127191906990873     
  0.142201609132658     
 -1.655005953408333E-002
 -0.187833357788323     
  8.255858161118840E-002
  0.242535490289771     
 -0.116076073239246     
  4.096314981280805E-002
  0.148057770869348     
 -0.314740020765327     
  0.124560446824581     
  0.193376212009294     
  7.771350185725526E-002
  0.697516525952188     
  8.851910932697100E-002
 -2.163992259369792E-002
 -1.822158134659497E-002
  0.268513496464943     
  0.222336937390492     
 -6.085375390708146E-002
  5.131803699600510E-002
  7.635505241841064E-003
  1.427344971012050E-002
 -0.283454539223977     
  0.173755028154934     
 -0.159131429798034     
  0.257094677893709     
  0.426043424275456     
 -0.223232774385961     
  0.188242173796351     
 -0.170000544704552     
 -0.115009248945415     
  0.191375761070847     
  0.180582238550667     
 -0.184924181367003     
  0.272349419257471     
  0.121704872100516     
 -0.662023056723266     
 -0.627122552172443     
 -0.319551078806948     
  0.311386038766822     
 -0.155749845966641     
 -0.278757147968883     
 -5.792944382345723E-002
 -0.285274100516820     
  6.964358532494114E-002
  0.268469197090045     
 -4.577340635590434E-002
 -0.330754153309011     
  0.211375007624357     
 -0.208963023582859     
 -0.440577969771023     
  0.137891515499895     
 -0.276970694128141     
  6.760129827984419E-002
  0.229112840816006     
  0.110127612389702     
 -0.223931156249921     
 -0.240836113791391     
  0.194719893518902     
  0.130862174828279     
 -0.633659170787997     
 -0.271802039278707     
 -6.332926317684149E-003
 -1.004790125602306E-002
 -0.545590949931052     
  4.109224596223498E-002
  0.158688602669826     
 -0.520965018845438     
  2.826788121717563E-002
  0.117877907737638     
  0.149482402576861     
  2.288456123472397E-002
 -0.424964686873039     
 -0.271282837816569     
  0.144252949044218     
  0.365971862434869     
 -0.166708435123048     
  2.364227494366601E-002
  9.090900821046317E-002
 -1.773503594536626E-002
  0.205246196362762     
  0.490601813877201     
 -0.451460756391884     
 -0.199767878117793     
  9.870509589679148E-002
 -0.364474141267348     
 -0.150890477627245     
 -0.244641736593162     
  1.701646867181996E-002
  0.369132282385319     
  1.479066326259361E-002
  0.264500849446429     
  0.111545028992236     
 -0.170646341422179     
 -0.787382058911112     
  0.346683448882584     
  4.331506635359388E-002
 -0.306966109881547     
 -0.229218831564942     
 -0.199650792822920     
 -0.330321320735531     
 -0.378793337970694     
  0.148299976976541     
  0.131274386300522     
  2.257293149186658E-002
 -0.141480062235160     
 -7.199542267673625E-002
  0.239938309741219     
 -0.527829913264301     
 -0.122950053547864     
  0.198647655398284     
 -0.181698073520807     
 -4.356750473354170E-002
 -0.251182262854738     
  0.109522461948320     
 -0.589932519235063     
 -0.230719320858762     
  0.275442540354731     
 -0.166878029751813     
 -0.251940873277832     
 -0.366570136771841     
 -0.430798133851092     
  0.100151887969352     
  8.416652325426022E-002
  0.372626216882500     
  7.983952317193191E-002
  0.325777825532543     
 -0.136769232802696     
  7.138777482280530E-002
  3.757481594977833E-002
 -0.304998526367653     
  0.367098977116397     
  0.267734126785970     
  0.356132970041659     
  5.923331079895329E-002
  7.077481186625771E-002
  0.537260152560236     
  0.210324952651573     
 -0.141162402791544     
 -0.232048052366985     
  2.572288338835811E-002
 -3.038579134800702E-002
 -0.147548811934308     
 -8.668612651613898E-002
 -0.120305538786686     
 -0.256385080528720     
  0.108916099906163     
 -0.472834460116161     
  0.384313437498993     
  7.683822173497497E-002
  0.340190176286734     
  7.922739669249866E-002
  0.185465826044615     
 -4.436379396657479E-002
  0.276015680315987     
  0.126186379771070     
 -0.367694212251554     
 -5.563564876983712E-002
  7.709525956291312E-002
  0.222543604640223     
  2.760781363703870E-003
 -2.740633216103813E-002
  6.237499043444010E-002
 -8.252164952507114E-002
 -0.356270485196603     
 -0.241350136179821     
 -0.100268999358064     
 -0.139392081558295     
  0.251451010687962     
 -0.360263913444662     
  0.130103329219192     
  7.960402477634639E-002
 -0.238073381439548     
  0.276788832809758     
 -0.140120725168353     
  0.136801147857108     
 -0.167508159544017     
  0.407695518614050     
 -0.152740484040171     
 -0.451427827073770     
  0.171960739126318     
  0.402239486215038     
  0.249080956420915     
 -0.133518712842344     
 -0.485697662723146     
 -9.486144243525002E-002
 -0.575605635334574     
 -0.465766036457400     
  0.110369037705347     
  2.407805721490089E-003
 -7.674747453223493E-002
 -0.314141527750637     
 -0.333496751252603     
  7.308447826469153E-002
 -0.163735617157313     
 -0.270082912420942     
  0.229937855371631     
  0.337539198826382     
  0.608753396823758     
  8.539083046664424E-002
 -0.432733916521952     
  0.194447152661886     
  0.481293371061362     
 -0.639020666972937     
  0.168816328417097     
  0.240790687287776     
 -6.824386956970892E-002
  1.736108954164141E-002
 -0.364997174962973     
 -0.155215480762613     
  0.117089314147311     
  3.257786374725837E-002
  0.356701655028752     
  3.711797419491936E-002
  3.702264431127877E-002
  0.151536993986918     
  3.517822236471251E-002
  0.258973296143853     
  2.597138842252271E-002
  0.439465286659741     
 -0.136583498188431     
 -0.217433654805570     
  0.163547641131124     
  5.634808286581306E-002
 -0.222821640702647     
  0.188855138307687     
  0.106414921950170     
 -3.449311745412784E-002
  0.166442250218576     
 -0.131447244747109     
 -0.270936794037741     
 -0.206352758001146     
 -0.327599185253703     
 -0.175821605272348     
  4.036370748768308E-002
  0.487809366215074     
 -6.982493033203614E-002
  0.480394125691111     
  0.620152157163369     
 -2.545310204971490E-002
 -7.096640110686024E-002
 -0.159757564874801     
  5.183194140756107E-002
 -8.359194073039430E-002
  8.945314644158031E-002
  5.084792149054371E-002
 -9.940437096418189E-002
  1.011062085706968E-002
  0.168125736107102     
  0.465208966973360     
  0.117652177536340     
  2.091592537595873E-002
  0.331919462675259     
  0.254480167874521     
 -0.171058925773042     
  0.160587203862418     
  0.141959195773156     
 -9.743092894212127E-002
 -0.124498853819096     
 -0.166356548462059     
  0.333209202374382     
  0.386575913552221     
  0.173664206888432     
 -0.607098729220165     
  0.393232296645263     
 -0.144783461085474     
  0.495840631010163     
  0.106130808086877     
 -7.292011126691851E-002
 -5.523001120775775E-002
 -0.337684140066876     
 -0.338206558512307     
 -0.163867501505487     
 -0.190676591854148     
 -0.208208091803044     
 -0.244738221751227     
 -0.325908640485084     
  0.275813037817065     
  0.126692626097932     
  0.100665155991165     
 -0.501487686447961     
  3.107639036828413E-002
 -5.810287065286029E-002
  0.183683326833475     
  0.155217943092445     
  0.332726782239002     
  0.131651290926847     
 -0.285460690673135     
 -0.102936566461279     
  0.553451678824585     
  0.389781066631151     
 -0.294449501747987     
  6.411489058638152E-002
  0.200622536791590     
  0.266593039238783     
  0.147972717020756     
 -0.293344654898950     
 -0.131833317871823     
 -0.172370982282639     
  0.175161109655056     
  0.187198654587399     
  0.289203536780571     
 -0.235770297473990     
 -0.415673039025576     
 -3.217791190464472E-002
 -0.112537733719219     
 
  0.328034528430833     
 -0.183224460887627     
  0.280735719875469     
  0.242657300834310     
  0.185189831230196     
  0.438948517276205     
  0.131309997140242     
  3.016462295399476E-002
 -0.754440302884487     
 -0.180514219254612     
  1.963423142610679E-003
 -0.104457281066568     
 -0.120854312682683     
 -0.379611524035913     
 -0.169014538189635     
 -0.489329094342475     
 -3.504172145820077E-002
 -0.353150817997341     
  0.295044735109950     
  7.725989323511795E-002
  0.421389410679602     
  0.167753301811270     
  0.195131880890275     
  0.257206658117809     
  6.048302606688673E-002
 
  -41.6193617914901     
  -7.22614970897482     
  -33.3094698072689     
  -46.7365520914795     
  -14.0207401008603     
  -27.6644991089172     
   34.5634297618200     
   94.7586452389282     
  -20.5562377979113     
  -9.01104568619282     
  -64.1296991799465     
  -12.2866665014180     
 -0.678301005857126     
  -8.62538707507166     
   8.37926234037819     
  -13.6636799518289     
  -36.4058280764640     
  -48.2908554240455     
  -9.15417996100325     
  -17.9235705586727     
  -8.60452681534515     
   47.5295212007047     
  -22.7418138914305     
  -5.20515852419415     
  -47.9927225084470     
 
  -8.52069460000000     
 
  tansig  tansig 
