     48 -    25 -    25 -     1 
rmse=  21.1916meV
 -2.478404196359980E-002
 -0.113269656439108     
 -3.581052379732087E-003
  6.995106500840036E-002
 -0.299115131732661     
 -9.732581716414225E-003
 -0.346831214057625     
  0.194488485908787     
 -0.576750149843425     
  0.345208586315470     
  0.198380996750788     
 -0.156249678274653     
  0.421394543988347     
  0.632641190610786     
  -1.05652483371088     
  0.805713178870047     
  0.174464352084221     
  5.262664271131508E-002
 -1.031830986250389E-002
 -0.176362230453771     
  0.231083136509733     
 -0.590386150062701     
  0.776180248995935     
 -0.630060405420123     
  0.197856596266574     
  0.423308395374883     
 -0.368941646626165     
  0.477493145055768     
 -0.628482472086590     
  0.702860535188484     
 -0.625694248676340     
  0.116950603589782     
  9.869173070813951E-002
 -0.196999433098520     
  0.227394713471523     
  0.137166167814363     
  0.126406831799435     
  0.475617533842925     
 -0.628441266249769     
  0.892837684443183     
 -0.217505407980534     
 -3.509215820967145E-002
 -0.401900652835337     
  0.312489145549744     
 -0.495158222758793     
 -1.558686841919880E-002
  0.372627674688442     
 -0.474999205818323     
 -6.857518553433992E-002
 -1.079265156654427E-002
  0.254571303318519     
 -0.524638728330720     
 -0.225669330790807     
  0.224478062303869     
 -0.196244888956534     
  0.198638990870807     
 -0.134046380650521     
  0.568579807675555     
 -0.861795575911927     
  0.624183105380634     
 -0.236517935822389     
  0.156408828273026     
 -0.632457607859574     
  0.467565323615128     
  8.474558356221595E-002
 -0.596146279584247     
  0.304317536548148     
 -1.648925892185935E-002
  4.386525788672670E-002
 -0.163446145204354     
  0.224522831548432     
 -0.253291013200610     
  1.203079070795414E-002
  0.260297074697810     
 -0.261830236425771     
  0.335805162794817     
 -0.441651814312249     
  0.463002014597550     
 -0.222466223397632     
  7.427497796060637E-003
  0.357073714724547     
  0.530779659662220     
 -0.330029590389621     
  0.336607934497794     
  0.245963038240192     
  5.386936587965605E-002
 -0.402907991383197     
  0.537245196340263     
 -0.256982308815400     
 -0.262860321130029     
  0.619853619102306     
 -0.353475318756702     
  0.327257105373772     
 -0.122141769611886     
  0.238218087752392     
 -0.218792820639358     
 -0.260464855451100     
  4.261054887948939E-002
  0.147977007025772     
  0.125874218944154     
  0.342045897404319     
  0.179199494329150     
 -0.379362562265981     
 -1.092471404113400E-002
  0.567313986487167     
  0.165742576673819     
 -0.153171926663383     
  0.439775589869581     
  0.169994254383821     
 -0.174680613730906     
  2.107928301261211E-002
  7.482145257469468E-003
 -9.287051201095641E-003
 -8.107174354622931E-002
  0.167812672305856     
  4.927852751566144E-002
 -0.155586142704141     
  1.207123523981615E-002
  0.162941756883714     
 -0.236062136553015     
  4.270566598957946E-002
  0.268537955095517     
 -0.309035620405320     
  0.124182393306885     
 -4.207261055457439E-002
  4.356379039968653E-002
 -4.068715382022955E-002
 -0.212153109187793     
  0.325203640141055     
  8.542028388586354E-003
 -0.215712073966516     
 -9.999721616470829E-002
 -1.985673985925832E-003
  0.203361259652226     
 -0.204536510869000     
  9.063389118942942E-002
 -0.220773156793151     
 -8.987595755155914E-002
 -0.132775496139985     
 -0.156176337729498     
  0.224451004644473     
 -0.496332597461434     
  0.486239998054689     
 -0.135486961815776     
  6.986108906004825E-002
 -6.327237278887565E-002
 -0.182387287717822     
 -0.221437148414198     
 -5.596748372596207E-002
 -6.860888451136005E-002
  0.222720006241271     
 -0.202989139808125     
  0.325464554130153     
 -0.154103960657138     
  0.224255218318813     
 -0.296562906085680     
  0.377270003514428     
  0.121971135345800     
 -0.318266339484952     
  0.545911530225208     
  2.448791484526650E-002
  0.301192512350440     
  0.431701484924705     
 -0.203434400917219     
  0.158480733639137     
 -0.329191866224670     
  0.297469712368239     
 -0.256595522282894     
  0.112784023189336     
  6.123147262896597E-002
 -9.217694043075068E-002
  4.225161574092226E-002
  0.348589647371001     
 -0.372544688072273     
  0.253159571121663     
 -0.136651133482059     
  5.702496390631268E-002
 -0.679857891652730     
  0.376431767521366     
 -0.188812740715052     
  0.233516671303029     
  0.394346678220573     
 -0.653281718506931     
  0.303484388747129     
 -0.266203284295533     
  1.563306491788295E-002
 -0.304161949441202     
  0.331933111407212     
 -0.608877170045465     
  0.412974019899062     
 -0.307001810221980     
 -0.140791960108330     
 -8.422389514950596E-002
  3.784608778050303E-002
 -4.805391266975840E-002
 -0.168616751500747     
 -8.834923258133018E-002
  0.296427606562911     
  0.485129650356046     
 -0.395783725445316     
 -0.206465667360052     
 -3.946043332026192E-002
  0.292892692815781     
 -0.128488553776784     
 -0.824654865091282     
  0.220025540283388     
  0.816955408334688     
 -0.591605801812266     
  0.137474046510998     
  0.272692355613432     
 -0.772507227562615     
 -0.507541478094839     
  0.999597939312823     
 -0.954979281366158     
  0.649587729253487     
 -0.467925814483042     
  0.218063088084493     
 -6.074051674933604E-002
 -5.046851892747461E-002
  7.867601721267664E-002
 -0.100023957549520     
 -6.443902906467408E-002
  9.184240730788204E-002
  7.257746121304127E-002
  0.338840096438826     
  5.340756718954726E-003
  9.303471458363059E-002
 -0.159965466479169     
 -0.143781584302662     
 -7.011746992013439E-002
 -4.847054264160264E-002
  0.244627743807645     
 -0.171885849955324     
 -0.173393486653479     
  7.752712615080867E-002
  0.180797329875734     
 -0.430156122195076     
  0.555863388401131     
 -0.905887095104520     
  0.484767136049271     
 -0.683101157921855     
 -0.611007346394851     
  0.753596515158304     
  0.110122920627361     
 -0.206557612019221     
 -0.300630151100396     
 -0.188006144999065     
  0.168802960936869     
  0.172538893352927     
 -0.292878061815999     
 -0.143230121575845     
  4.748829945147148E-002
 -0.249260437675780     
  0.589272567374157     
 -0.155184325279866     
  6.765937911474516E-002
  4.886115644704014E-002
 -7.300904817832501E-002
  0.111618634778759     
 -0.143232056557663     
 -1.382860732084544E-002
  6.730317229003598E-002
 -0.207988746740466     
  0.307961132054121     
 -0.374483453530978     
  0.115491145364284     
 -3.713933236321375E-002
 -8.758212561902538E-002
  0.273080794384279     
 -0.432355123287795     
  0.295994915315470     
 -0.245052918960254     
 -0.130678166810885     
 -0.480496992884560     
  9.168831234341025E-002
  0.202051031667136     
 -2.907605070482352E-002
  0.100129294562432     
  0.231383029014332     
 -0.369456250115369     
  0.173776282180449     
  0.460507805635356     
  2.371749151061122E-002
 -0.121053994397753     
  0.356251359513964     
 -0.368432334403143     
  0.163305267312520     
 -7.616309968868874E-002
  0.268955278399082     
 -0.391025933626370     
  0.194458130622342     
  0.310640192180488     
 -3.182361905661221E-002
 -3.554588181906309E-003
 -0.281149985258341     
 -6.221335704762788E-002
  9.493148604834671E-002
  0.136203499203687     
 -0.115848006449137     
  0.224798758802512     
 -0.266459854280039     
 -1.593694804249966E-002
 -0.232088254549930     
  0.151163743071318     
  0.235761546678946     
 -0.547296129768566     
 -0.363786462161690     
  0.141500293683573     
  6.659632685088733E-002
 -0.255664610545656     
  0.343170565328612     
 -0.390611995281715     
  0.128117362461228     
  0.283790313464511     
 -0.111000803321972     
  0.114825692216996     
 -0.244912266896823     
  0.188696344281233     
 -5.247308333912652E-002
  4.072627357287052E-002
  6.961118924055330E-002
  9.481174299764354E-002
  2.962469665908091E-002
 -8.895160964358180E-002
 -0.246663170144184     
  0.205811081679824     
  1.375529282599834E-002
  1.621205909177967E-002
 -0.195703555580491     
 -9.700356952392518E-002
  0.247619059471373     
 -0.265291766498158     
  0.452183750388610     
 -0.254994796819253     
  0.203098754188048     
 -0.158191099208547     
  0.322374057097197     
  0.189709606634250     
 -9.981147236695417E-002
  0.162822293288824     
  1.931729956347539E-002
 -0.470466654892550     
 -0.181577047071744     
  0.613698174029470     
  0.464627326606257     
 -0.156437727792721     
  0.263483060675449     
 -0.285800400914154     
  0.534591573595051     
 -8.252721155898056E-002
  -1.13960510368949     
  0.242359327258745     
 -0.138552905827258     
 -0.273507392473520     
 -0.362651909614118     
  0.118065314994902     
  0.221262677588556     
 -0.369981143968815     
  0.486438639336239     
 -0.301349449147516     
 -0.199569218809280     
  0.628592807532930     
 -0.380544569493441     
  1.704316037314872E-002
  0.200617482180407     
  9.756145683177815E-002
 -0.143419847987822     
 -0.142785944742700     
 -1.759555968505569E-002
  0.263086674526357     
  0.309113840169847     
  2.989387301971793E-002
 -0.248915186992067     
   1.02275639367534     
 -0.926472868837827     
  0.523711399799387     
 -0.332610817047282     
  0.256362158648247     
 -0.707008679739467     
  0.630414042049046     
 -0.856080827261628     
  0.599436842291585     
  0.457628964660180     
 -0.143535128766379     
  6.107791954264015E-002
  0.274562102098046     
 -0.165562685915385     
 -2.550193172181379E-002
 -0.242154902131035     
  0.351328212734321     
 -0.452675595789471     
  0.418242855696024     
 -0.416521845016353     
  0.236302645921542     
  1.618407389529851E-002
  0.290591746813380     
 -0.375611470875556     
 -0.545947600232023     
  0.813051163504698     
 -0.106229652532564     
  4.144815625900698E-002
 -2.451366753567717E-003
 -0.111475775895774     
  0.145223284483465     
 -0.295813908953762     
  0.143818305800594     
 -8.521888624301074E-002
  0.268256039535884     
 -0.143000126391153     
  0.109705468454020     
  7.106846103895564E-003
 -1.506710599424871E-002
 -8.314695133540574E-002
  0.317735890944109     
 -0.422189126852764     
  0.155992610231689     
  0.113249327473016     
  0.465476599576306     
 -0.228645725800066     
  0.213140997624235     
  7.523279155216470E-002
  0.146244356491262     
 -0.232391873052226     
  0.408192383306450     
  4.995309766770075E-002
  0.226740744501483     
 -0.261049688418876     
  0.125914387767090     
  0.164019566785656     
 -0.176849252155300     
 -0.128301484406040     
  7.890333449351751E-003
  0.413624651790534     
 -4.685109030494307E-003
  0.123115509111021     
 -0.268890764675662     
  0.579756011084815     
  0.160239279283971     
 -0.290925454956761     
  0.445493682539376     
   1.86681006262236     
  0.634741822689070     
  -1.18432646168390     
 -0.506368367595779     
  7.276881596427656E-002
  -1.29220023779987     
 -8.100269612036461E-002
   2.46228918057748     
 -3.872264743338173E-002
 -0.117978537171423     
  4.479281944825788E-002
 -7.541752249630256E-002
 -6.260107644919188E-002
  0.100080243448632     
 -0.536686783388953     
  8.203070436208286E-003
 -0.680552538445185     
  0.909207624152688     
   1.74464776747260     
  -1.57339569630551     
  0.874162566419710     
  0.371945959143365     
 -0.274756492227802     
 -0.899546553846915     
  7.656978931198034E-003
 -0.349254213899793     
  4.217922021780964E-002
 -1.577326194627981E-003
  9.160825324407822E-002
 -3.975137020053210E-002
 -0.312733216471619     
 -0.441563226340602     
 -0.919361701340703     
  0.320071716897310     
 -0.199493219657071     
   1.45418408565233     
  7.307419301140458E-002
  -1.05009001086140     
  0.504665355683682     
  -1.80256460174056     
 -0.219773790014395     
 -0.394505898073762     
  0.414771876148301     
  0.197186201109213     
  0.273204371001796     
 -5.095162864246446E-002
  0.545597035341623     
 -0.397471968193058     
 -0.159874105129617     
 -0.214150651990447     
  0.690828780789692     
  0.189170289787021     
  -1.18717130276153     
  0.324440378886520     
  0.349641926712502     
 -0.549641561612687     
 -0.153813580047501     
 -9.975747354713602E-002
 -0.320696334437643     
 -1.126186306270848E-002
  0.253100918795275     
 -0.254466724272538     
  0.407585160053234     
 -0.440668990465330     
  0.399244157888312     
  6.459434751496430E-002
 -0.103762922657837     
  4.001836460422772E-002
  0.202514898277835     
 -0.488469179639097     
  0.347744638588795     
  4.667833416209780E-002
  3.091840933160133E-002
 -5.163314325519527E-002
 -0.209812234519084     
 -1.472477055914842E-002
 -0.744694192212176     
  0.293281797154442     
 -0.197606195487663     
  0.216458426066052     
 -0.121538822745440     
 -0.501241684297476     
  5.965232973356322E-002
 -0.126641603927447     
 -6.299240261437859E-002
  0.528727714280193     
 -0.561529521257759     
  0.446984278187962     
 -0.418367243405765     
 -0.488992408359786     
  0.494415335264250     
  9.216756502590562E-002
 -0.154690082024728     
 -0.313821215270731     
  0.369573704393446     
  5.665419080132972E-002
 -0.389394114160491     
  0.505478849197464     
 -0.334477229601683     
 -2.532981170008572E-002
  0.568826451812945     
 -1.641918989464581E-002
 -7.263391967740318E-002
  0.384627455047966     
 -0.143080076807111     
 -0.242897037119848     
 -0.295022487106882     
 -9.148943148523775E-002
  0.123884992583804     
 -0.121535916438760     
 -3.149802664714582E-002
  0.209256082907086     
 -0.171588282660121     
 -0.356598082690151     
  0.311761942627656     
 -0.161613787121110     
  5.118891952621250E-002
  0.277188365392575     
 -0.417027032063015     
  0.237155687150280     
  0.344073495611135     
  6.665073452425258E-002
 -0.243278027055732     
  0.379799286112730     
 -7.104661020942329E-002
 -0.244485160224878     
  0.135275142146971     
 -6.749288682605945E-002
  0.173605916167894     
  3.090227017376962E-003
 -0.146835743413343     
  0.317569459893837     
 -0.555711899464479     
  0.241420133602897     
 -0.178924232337832     
 -0.140497220512168     
  0.220542251785358     
  0.176412816144754     
 -0.217204282473821     
  0.657503023382247     
  0.113564160841234     
 -0.292533801780408     
 -0.444272677483243     
  0.167646409551001     
  9.555814281589835E-002
 -0.894731402933497     
  0.252443304485881     
  0.217975995963692     
  0.279747994622434     
  0.277029857252909     
  0.280248329765192     
  6.702143704371197E-002
  7.708840552108828E-002
  0.193795241870457     
 -0.303251581033759     
 -0.133252206042446     
  0.131904086913651     
 -0.109593067943237     
  6.095239362024967E-002
  0.225658099453208     
 -0.202640443459341     
 -9.653860826760705E-002
  0.191243789066589     
 -0.288289171945020     
  0.364706741117754     
 -0.384137901201623     
  9.701119770936331E-002
 -7.530711004656242E-002
  0.215572386981486     
  1.149905459664707E-002
 -0.164505381124081     
 -9.704620008063311E-002
 -0.352273930522978     
  0.502754607147576     
 -0.118214918983241     
  8.980471906532159E-002
  0.337339449989139     
  1.024802344173461E-002
 -3.571687891623158E-003
 -6.241659950923188E-002
 -0.231872691843201     
 -1.393522343658877E-002
 -0.224798672753072     
 -4.270255666893405E-003
  0.120178002230439     
 -2.071404284156537E-003
 -0.139759481146786     
 -4.151214813445576E-002
 -0.185231903405570     
 -0.166060760123603     
 -0.123771916656707     
  2.667053161373964E-002
 -9.117279922351126E-002
  0.195813827141060     
 -7.907844252589516E-002
 -0.181919462935850     
  0.433214747158651     
  -1.11504376602597     
  0.721348191743044     
 -0.452633423266133     
 -0.192907308054899     
  0.339447561958306     
 -1.353269372226006E-002
  9.105766894006963E-002
  0.179646869892881     
 -0.260612065681869     
  0.352622549274054     
 -0.487185604089611     
  8.987528484279060E-002
  0.362329953571396     
 -0.259768453197834     
  0.281565352168681     
 -0.316678687061862     
  0.174219702168074     
  9.284815862901415E-002
 -2.254146340035558E-003
 -0.329321958279687     
  2.990289045833083E-002
  6.412599339009734E-002
  0.164909351415138     
 -0.141014280282297     
  0.159282928182103     
  3.745907632303783E-002
  0.128575021503072     
 -0.402877579164397     
  0.106822923742010     
  0.474353459284483     
 -0.492776701726710     
  0.725971202409145     
 -0.104274885730602     
 -0.122265441006192     
  0.217091077575156     
  0.429996366432391     
  0.156023872128600     
 -0.297090522184954     
  4.182715185550230E-002
 -8.351260023849265E-002
  0.272023862325008     
  0.109404863239712     
  0.340461594675371     
  0.420786553774306     
 -7.828740232192394E-002
 -0.105260450880261     
  3.991210910008828E-003
  0.165729248981470     
 -0.446401616218094     
 -0.149161228367685     
  0.309211793139748     
  0.285532545746061     
 -0.337855558639913     
 -0.186600513629238     
 -9.646744520964232E-002
  0.189274558834236     
 -0.351164554182075     
  0.320950393439074     
 -0.111355781544418     
 -0.176145818493212     
  0.144896208866353     
 -3.491019135249535E-002
 -7.665389152616725E-002
  0.196129215363533     
 -5.103138691258868E-002
 -0.100748792450708     
 -2.982512961656498E-003
  0.398247043396256     
  6.994373283331845E-002
  0.363772836754350     
 -0.399732292600309     
  0.283155575601984     
  0.150770303383208     
 -0.567622107922008     
  0.308377907838608     
 -0.350819336060961     
  1.551360924427200E-002
  0.128285996572196     
  5.082238884707835E-003
  4.781034008358484E-002
  5.659933670051716E-002
  9.902595456251265E-002
 -0.201548948464501     
 -0.224157371808008     
  0.183493837114533     
 -0.208643093887557     
  0.381019618096790     
 -0.150143188592001     
 -0.549042064139504     
 -2.855446193940241E-002
 -0.161492929665300     
 -0.122237395045476     
  0.266184956082460     
  6.397671683257716E-002
 -0.778165543047050     
 -0.170155643352111     
 -9.778662559752166E-002
  0.190598454978821     
 -0.781209431851150     
 -0.269952365003552     
  3.976871657328294E-002
 -0.292927302154855     
  0.244177302109953     
  2.251603787718540E-002
 -0.178406835718066     
  0.356167949315643     
 -0.393666310313445     
  0.283615037191171     
  0.298668423080433     
 -0.386875172248540     
  0.511158498519447     
 -0.360705424301248     
 -0.287319252281318     
  0.563631164144505     
 -0.145685935400921     
  7.273905597406913E-002
  0.149834589880110     
  0.101494298043612     
  0.177609071135261     
 -0.581284709283418     
  0.310585910805038     
  0.172982992751416     
 -0.228899985631724     
 -9.942564163851496E-003
  0.198496321391648     
 -1.039565564446358E-002
  0.247490490428106     
  0.108038183906695     
  0.281680384542538     
 -0.205968235231874     
  0.424659191832837     
  0.137033933265846     
  0.221436201632784     
 -0.290784353476138     
 -0.139756675621519     
 -0.117000962493037     
   1.02700117720517     
  -1.09845032087314     
  0.339905146450350     
  7.919685908577299E-002
 -0.546438590953224     
  0.213376249639020     
 -0.282690964706756     
 -0.251539166979646     
  9.801327413520880E-002
 -0.324993314767250     
  9.471812169644962E-002
  1.742708173960691E-002
  4.534274283777081E-002
  0.124459851439894     
  0.430890047363755     
 -0.308853742384371     
  9.789246260915364E-002
  0.212531970330934     
 -0.281073891202637     
  0.215019873397265     
  0.393123880308300     
 -0.217076580699571     
  0.100428778922922     
  5.161555231782138E-002
 -0.244298692331855     
  0.272457495445426     
 -0.126101049056964     
  0.323748569947963     
  0.238944755522229     
 -0.265098621775673     
 -0.121935363473121     
  0.240369674722794     
 -0.164403572767226     
  0.182189072273724     
  6.955510245351586E-002
  0.223749780760542     
  6.965399061420997E-002
 -0.201498523781660     
  0.530158896962858     
 -0.813407747006577     
  0.937342875678507     
 -0.506093013997849     
  6.741543952826670E-002
 -0.270712942726192     
 -0.112269657873482     
  2.273970264504115E-002
  4.784487540282507E-002
 -7.242946762505018E-002
  3.381843656580692E-002
 -0.340713449476205     
  0.190808291310161     
  0.151340723627965     
  0.561736869192978     
 -0.859003650346126     
  0.662142233546534     
 -0.313104594175623     
 -0.377775437004776     
  0.773837456746420     
 -7.481540449806845E-002
  7.066036964437560E-002
  0.219320172678917     
 -0.110762712623311     
  0.297062374676289     
 -7.743880040216816E-002
 -0.187746515089744     
  0.300678528266561     
 -0.323799822589374     
 -5.572580264380462E-002
  0.193037733185227     
 -7.536464197245599E-002
 -8.896875861991935E-002
  0.341857732185275     
 -0.461641791298554     
  0.525211370105398     
 -0.420809953433768     
  0.122569491251528     
  2.894679815955543E-002
 -0.246507651653344     
 -9.009848540755167E-002
  0.173590703748402     
  0.273698417866911     
 -0.447207451265380     
  0.343735266871074     
 -0.299787741164692     
 -9.123111671221980E-002
  0.377069926463630     
 -6.308314654565236E-002
 -2.716845336950874E-002
  0.101624965968302     
 -0.489832162916324     
  8.301640489835124E-002
 -0.413741730464952     
 -0.175408974158082     
  0.398447322507629     
  7.607907678596475E-002
 -0.318742449307893     
  0.205248302471103     
 -0.691267035473239     
 -6.748872879208460E-002
  3.834373386581325E-002
  8.270950134814994E-002
  0.172366558176532     
  -1.01293095685963     
 -0.535717314734395     
  0.970419448267736     
 -0.737419763759619     
 -0.174205336407496     
 -5.993316794559812E-002
 -0.272473943796297     
  0.155225217500749     
  0.198692883391960     
 -8.265400462222020E-002
  5.488433769443464E-002
  3.588776717772098E-002
 -9.136399478271272E-002
  2.266110417802634E-002
  0.241201450020957     
 -0.258208244474872     
  0.288995493312024     
 -0.167517118857514     
 -3.265224383681338E-002
  0.217796228785482     
 -0.112142522201463     
  0.110374764356122     
  0.254678043649247     
 -0.232312207785029     
  0.174409939521523     
 -3.651336054513018E-002
 -8.686654882007085E-002
  0.638441967982356     
 -0.496366908486927     
  0.108360230642679     
  0.422460201231691     
 -0.194454847291685     
  0.579220607123057     
 -0.293116297061030     
  0.105946287460214     
  0.187962120618993     
  8.425969921567292E-002
  0.287925104649781     
  0.107648558749797     
  2.203359821265694E-002
  0.156293241475726     
  0.278822728002911     
 -0.198575625701197     
 -0.320330920783433     
  1.618102088186954E-003
  0.124754904704300     
 -2.449563204905611E-002
 -0.233087647292637     
  0.634461923298800     
  7.170221245132541E-002
  0.402118038901157     
 -0.184172754831208     
  0.255928985951103     
  0.171508102841056     
 -0.150578865463512     
  0.293773560601642     
 -2.311997614923678E-002
 -0.109182705518628     
  0.164725624761209     
 -0.222942898258619     
  0.336541969608535     
 -5.832054823889880E-002
  0.153794056200022     
 -0.117510311176748     
  6.184026125404143E-002
 -4.718718458809110E-002
  7.034354398050192E-002
  1.176477495530626E-002
 -0.136132529721419     
 -0.227327625094408     
 -0.290132091816193     
  0.245432712784809     
 -0.421333660870621     
  0.175581818793985     
  0.747844734887545     
 -0.632257937608055     
  0.399024416130507     
 -9.951020009419631E-002
 -6.220871540270188E-002
 -3.237248707914865E-002
 -0.262190905226009     
  0.101299175987170     
 -0.330886127936360     
  0.165378284982332     
 -0.143570176225020     
 -0.117348834743621     
  2.743297209078747E-002
  0.334238803986241     
  9.096400832001877E-002
 -0.277218095469230     
  0.112267503334678     
  0.157479413561274     
  0.430207680611281     
 -0.204326058360736     
 -0.142590429287737     
 -0.787795978047486     
  0.809799168764736     
 -0.289926161826671     
  0.389143091087646     
  0.191455897717229     
  0.221885014918516     
 -2.609978220983303E-002
  9.957299445193885E-002
 -0.223007624514850     
 -0.447066635510565     
  0.186279858854644     
 -7.805290447767897E-002
 -0.101068586251515     
  0.387672098832700     
 -0.484263746093504     
  6.632039525042449E-002
  8.404312561867927E-002
 -8.865312029830764E-002
 -0.236540930232013     
  0.281704030748911     
 -0.296908167040481     
 -5.961779453695372E-002
 -0.410249861381895     
  0.105996533246223     
  4.617935263028813E-002
 -3.452285250557256E-002
  0.109542301903793     
  0.186048413117252     
 -0.625281618975955     
  0.700626235929903     
 -3.226086853801708E-002
  0.190340655728437     
  0.368696521045264     
 -0.132546889426221     
 -4.587511525356929E-003
 -0.309897744536741     
 -8.715052204004282E-002
 -0.110391894637070     
 -0.154883352399959     
  0.132793177202183     
  0.111616963259489     
  0.393104608298870     
 -0.336948571111770     
  2.388751122077756E-002
  0.803896837754802     
 -7.046041818330410E-002
 -0.728541530111124     
  0.202555240480835     
  0.555079499945106     
 -1.432019175953205E-002
  4.503545002775733E-002
 -0.141370871106913     
  3.627843933260960E-002
 -6.689302380134812E-002
  0.194048405933789     
 -0.149808160128851     
 -0.749044453083278     
 -8.819232326024098E-002
  0.550292521767216     
 -0.710941446339598     
  0.642443494346387     
 -0.363845445035225     
  0.145047354846771     
 -0.400705303174129     
  0.415201997491621     
 -0.508450331024192     
  0.722375716951614     
 -0.444766235157888     
 -3.415234949510935E-002
  0.341175648596238     
  1.702086926344709E-002
 -2.641113842865005E-002
  0.228605335058346     
 -0.331801042624073     
 -3.018222249269735E-002
 -0.306008519636466     
 -7.511087497812004E-002
  0.241618760188966     
  6.408681964306112E-002
 -0.277246602107664     
 -0.278448821638154     
  6.617578184669909E-002
 -0.336258646225271     
  0.493920613387156     
 -0.165992718447562     
 -9.952944214373370E-003
 -7.280155393279183E-002
  0.166419239473791     
 -0.260100339115983     
 -3.412382914169496E-002
 -0.149183703891837     
 -6.756949827752691E-002
 -3.610566472926816E-002
  0.260160094416468     
  0.393110612290915     
 -6.126118396712255E-002
 -0.285281893131247     
 -1.835031506764851E-002
  3.148440634811515E-002
 -0.116957343569227     
  0.446555049185073     
  0.116472421998008     
 -4.831758628345043E-003
  0.158644181224410     
 -0.166186076746610     
 -5.187707807269647E-002
  4.772798706698334E-002
 -0.128988417843608     
  9.167667851767210E-002
 -7.406902737689276E-002
 -0.260573520164772     
  0.158962482345727     
 -8.102624844850354E-002
  3.459391824943609E-003
  9.691003447250260E-002
 -9.460690719781252E-002
 -8.767517234828094E-002
 -0.109749126148625     
 -0.228725389174516     
  0.136191404336498     
  0.129770847891923     
  0.272827864068256     
 -0.210628682364852     
  4.850564640270399E-002
 -0.209517918511297     
  0.150137371964056     
 -0.344416796782998     
 -0.127591429036217     
  0.499457889449542     
  2.949848771162175E-002
 -0.233722137109076     
  0.238717291894173     
 -0.421484154700639     
  2.995041976010281E-002
  2.068655815789075E-002
  5.274465220983008E-002
  3.983911335043455E-002
 -0.583397148484010     
 -0.119108036972346     
  0.275426400113954     
  1.184644629875488E-002
  0.344834336203769     
  0.337345882053430     
 -0.195382225067924     
 -0.201324225911385     
  0.629166868011425     
 -0.867501709523107     
  0.876749610398499     
  -1.08564527518069     
  0.625818015090311     
 -1.103914916470886E-002
 -4.756117575570964E-002
  0.499902746032185     
 -0.194936010732948     
  2.609929200569799E-003
 -3.600687539146446E-002
  6.829148209138979E-003
  3.309187366188672E-002
 -0.268390615604500     
  0.211980346094653     
 -0.128447909644336     
  5.942181695388129E-002
 -3.290935693295894E-002
  0.225637875960807     
 -0.133773125046525     
 -8.701611240636196E-003
  8.339092171397383E-003
 -0.155713784730700     
  8.625506190529503E-002
  1.179537732583917E-002
  0.560012440697466     
 -0.131404852719690     
 -0.371403242611446     
  0.202294306463673     
 -0.141159773674792     
 -7.053003164672726E-002
  4.939877696894208E-002
 -9.956898777411803E-002
  0.146526299629246     
 -0.186256177411496     
  0.404915091197717     
 -0.275966811519317     
  0.122154070636455     
  6.139313668860224E-002
  0.163940143079184     
  0.114835409605615     
 -0.125659564850134     
 -0.632693287536363     
  0.624698140041551     
 -0.162004217054761     
  9.462487696124743E-002
 -0.801014479993848     
  0.673859896795115     
 -0.265279091660850     
  6.193812055300570E-002
  6.880278030751176E-002
  6.677884978770440E-002
  2.021049903492758E-003
  1.145428520487280E-003
  5.174523696037805E-002
 -0.324678763677160     
  8.789477238300004E-002
  0.187226523436711     
 -0.275414808234890     
  0.169744856663581     
 -6.816560761227540E-002
 -0.184075135415172     
 -0.374865523277497     
  0.290368691691531     
 -0.297298711706232     
  0.429943202745142     
 -0.275190674309603     
 -5.571784247258997E-003
 -2.920006489772450E-002
  6.707520362664504E-002
  0.284110224915445     
 -0.408415865975649     
  0.332587349741079     
 -0.130015091530647     
  0.120801777927710     
 -0.463868712328527     
  0.319249947206316     
 -3.331570331363053E-002
 -0.168309396747519     
 -0.124709819196794     
  0.125696825200388     
 -0.274041825857171     
  0.251299563602130     
 -0.173449724422127     
  5.241756462665619E-002
 
  0.415218223994104     
  0.177144665673914     
  0.485609406442145     
 -0.137484030631711     
  -1.36069425901066     
  0.289948196659976     
  0.943721527982414     
  1.427120174290546E-002
 -0.620184220300902     
   3.16994001136436     
 -0.133010939037059     
 -0.723162423473756     
  -1.39308995319878     
 -0.637689254098381     
  0.475558739909235     
  0.893577821697371     
  0.357796314163110     
  0.223764429208411     
 -0.905312683673986     
 -0.257503013877258     
 -0.591000164465096     
 -4.684012389706350E-002
  0.287300341672090     
 -0.295405929096488     
  0.467367914323819     
 
  -1.09872081937093     
 -0.429365291216455     
  0.136604693398308     
  6.502988289994201E-002
 -0.279187870383088     
 -0.366533159007985     
 -0.218958079530768     
 -0.108653880151906     
  0.251101809563233     
 -0.118104314992491     
  0.100986397793861     
  0.696878390355112     
  0.267364270007885     
  -1.30387285421891     
 -0.198538747317443     
  0.746098923167591     
 -0.410121998665396     
  0.361639009195513     
  0.794229241532858     
 -0.777813949734777     
 -0.694844068721398     
  -1.08482261233497     
 -0.133559793463350     
 -0.536706343928231     
 -0.554427045222109     
 -0.743724363128135     
  -1.16605405319657     
 -0.209187249458759     
  0.313200075971694     
  0.816295633426791     
  0.414941563244971     
 -0.278248618212064     
  0.154547646659596     
 -0.204174934812419     
  7.834815100930062E-002
 -2.440597275826382E-002
  0.448566567855863     
  0.197933418497015     
  0.184522185858378     
  0.137365341879306     
  0.491963525524478     
  0.540710201567847     
  0.864529354001062     
  0.138365384460026     
 -1.389327173867033E-003
 -2.142509781028061E-002
 -0.218147291963957     
  0.413070377322177     
  0.258370880859924     
 -0.914407510249597     
 -0.679152571356723     
 -9.256329291185285E-002
  0.626825680020541     
  0.258152997757550     
 -0.124971292665218     
 -0.629304239073642     
  1.122178098468633E-002
 -0.163565325362860     
  0.817104117516135     
  8.637844139721294E-002
 -0.380311208793123     
  0.681838960543577     
 -0.545206362472017     
  0.194097855740878     
 -5.999503222015290E-002
 -1.485779571353599E-002
  0.277037043274286     
  1.438728490487769E-002
 -0.669660526365529     
 -0.526325172904535     
 -0.362040922625201     
 -0.204998250277357     
 -0.560084823157804     
 -0.668430758655575     
  0.414482928322341     
  0.160766649661767     
 -4.611138597134522E-002
  3.792464480559479E-002
  0.501589881634296     
  -1.10169527934576     
  0.256499522578636     
  6.416059244868708E-002
  8.082119369090619E-002
 -0.848788295077210     
  0.124570525575440     
  0.707722891528693     
  0.600142774196528     
  0.114395484185672     
  0.269347411239020     
  0.413219484832831     
  3.850898452895832E-002
  0.111642012609084     
 -0.362157515490584     
  0.453178616581756     
 -0.306302461025749     
  0.606180137734176     
 -0.806603871090604     
 -1.312042298674311E-002
 -0.487640790081329     
  0.131984055257862     
 -0.173462722463756     
  0.344530011581760     
 -4.374229038223959E-002
  9.899019080040837E-002
 -0.274965421693417     
  0.359109753642462     
  0.258792966301395     
  0.142471049007345     
  0.110010363837205     
 -2.916839342918046E-002
  0.510655980833361     
 -4.723862149635098E-002
  1.540961547518142E-002
 -0.234029071934206     
  0.170242397658746     
  9.786957437213817E-002
 -0.546345760164270     
  0.425441920624324     
  0.138794421071207     
  0.256037636335575     
  0.331491929799863     
 -0.122463204259342     
 -0.443640374444397     
 -0.422701346982971     
  5.000939107419528E-003
 -0.664612451900248     
  0.488464259273943     
 -0.377701519352977     
  0.396030057070485     
  0.990029747350755     
  0.116387431682928     
 -0.298267530967207     
  0.643116832285488     
  0.595083281108967     
  0.124465605341871     
  -1.13645253873150     
  -1.26503988515629     
  0.658796960409300     
 -0.830149729208972     
 -0.887269330296745     
 -0.101673329489454     
  0.408960378629793     
 -0.523044125115937     
  0.611696689396897     
 -0.166200296528589     
 -0.285419039812394     
   1.40915846700785     
  0.743911770109558     
  0.652499121159168     
 -0.400883678236109     
 -0.285068661961327     
 -0.969174178065203     
  0.246350457732225     
 -0.753215245244383     
 -0.617001390382468     
 -0.481939305581056     
 -0.204179768440879     
 -0.144834686797616     
  0.117298796323186     
  0.121440822677342     
 -0.813338075729571     
   1.55790497361280     
  3.304535359723128E-002
  0.463452863506194     
  0.899395502380819     
  0.508834352216952     
  0.803230337121032     
 -0.475633037980237     
  0.226300976994471     
  9.739625658839704E-002
 -0.100617249308063     
 -0.953190723467893     
  0.279294694677377     
   1.19416615748002     
  0.632224499877061     
 -0.647366656485843     
  0.959836060367109     
  9.863385167394301E-002
 -9.657426523144384E-002
  0.601529561334925     
  0.214082800147736     
  0.629589285402222     
 -0.182863488523611     
  0.424566531880912     
 -0.157389885328892     
 -0.158508067703289     
 -0.411092152511878     
 -2.702844126900017E-002
  4.129064727575470E-002
  0.363335748313505     
  0.183181178626009     
 -0.240121429444491     
 -3.770015162560772E-002
 -0.318910731905675     
  0.404783022691705     
  1.330763052597906E-002
  0.187683761104152     
 -0.146807821723431     
 -0.153441854815944     
  0.125144991751358     
  6.710087444875198E-002
  0.427543080311565     
  0.352912635202130     
 -0.446299364603789     
 -0.333689771791300     
  -1.31449755951869     
 -0.628666995846718     
 -0.491617343853800     
  0.782794694658577     
 -0.147849233202876     
  4.135536763639502E-002
  8.315715080483717E-002
 -0.253736829097169     
  0.460358993121767     
 -3.965403412036530E-002
 -0.448580642500774     
  -1.80490174538214     
  0.922488631229242     
 -0.691084592320717     
 -0.123168813717629     
 -0.609742390704835     
  0.500775774536965     
 -0.460992418322860     
 -0.690130494162928     
  0.291260244481055     
  0.765635576341849     
  -1.86730119869613     
 -0.380127134030630     
   1.00414177115095     
  0.261904006938772     
  0.157979629135914     
 -0.341581057400652     
 -2.778376214302219E-002
 -0.427480278784934     
  0.310879849714229     
 -0.432365640706658     
  -1.01641801993936     
  0.262885563857030     
 -0.235479626637213     
 -0.150018119476502     
 -0.365903386728262     
 -0.855532345768977     
  1.761228961146111E-002
 -0.931298823016123     
 -0.169207057303607     
 -0.146818248823675     
 -0.460472302187539     
  2.388438253446780E-003
 -0.612114358420490     
 -0.397401699751009     
  0.153242305297078     
  0.553809974145229     
 -6.959665480547991E-003
  0.152340882398125     
  5.861168273638302E-002
 -7.690658748024194E-002
 -0.606220169496991     
  9.594015033759380E-002
  -1.32537014801110     
  0.135398953009891     
  0.151626733870035     
 -0.210729347597738     
  0.681760335862678     
 -0.518116762113046     
  0.485528036108612     
 -0.160951671097379     
   1.03923445469787     
 -0.447510261625955     
   1.01857698877681     
  5.553470673137471E-002
  3.176157037588229E-002
  0.192198683071184     
  0.361798388440677     
 -6.318950053293759E-002
 -0.465942255961853     
 -0.729762937833523     
 -3.463351642191183E-002
  0.507383572402000     
  8.892505239485081E-002
 -0.325552861910615     
 -0.540180778149239     
 -0.476762933479879     
  4.198050464425193E-002
  0.213144570915506     
 -2.902803911679251E-002
 -0.163024559128844     
  0.238302761674865     
 -0.255246224413955     
   1.12249328388892     
 -0.658184400997057     
 -0.301391144674012     
  0.234308267314074     
 -0.779404536527948     
  0.151645227241492     
 -0.382379001795892     
  0.301307180324980     
  8.257569588516368E-002
  0.299033707212871     
 -9.205006275148953E-002
 -0.171483977896615     
  3.507091238658331E-004
  0.242392257542104     
  0.447612339578170     
 -0.278662624241357     
 -0.334620818346109     
 -0.159842760209928     
  0.344291610803687     
 -0.450657086656348     
  0.381517599916795     
 -0.130733668109992     
  0.725843749377120     
  0.558648013820560     
 -0.755431596484025     
  0.856217409947256     
  0.534294870592862     
 -0.404695040793760     
 -0.964776168468919     
  0.385485217808691     
 -0.436226593029980     
  0.573738661710105     
  1.287685326793441E-002
 -0.480234705200603     
 -0.391632278359085     
 -0.671677848196811     
  0.704018152579496     
 -0.521869264925336     
 -0.576657071509778     
  0.550611140279142     
 -0.164238831476398     
  0.566655153372449     
 -0.474167841352883     
 -0.197064680104749     
  0.516640019253291     
  0.526865259198668     
  4.371934057757604E-002
 -0.539850686768095     
 -0.324203045659005     
 -8.630558182376977E-002
 -5.519587744344021E-002
  -1.05135261568715     
  0.637994382366623     
  0.312780183441301     
 -0.705752551349270     
 -0.589662222862061     
  0.562389078642544     
 -6.052808880350551E-003
   1.21615529890107     
  6.564305675547283E-002
  0.715165785416361     
 -0.219671669950183     
  0.917378763969573     
 -4.681578887526102E-004
 -0.392512976047320     
  0.291930696103680     
  0.661409731946963     
  0.831144113400163     
  0.170801395983946     
  7.809351124170075E-002
 -0.323216371247746     
 -2.183056362045573E-002
 -0.285552054832070     
 -0.413925045988895     
  0.518219832044472     
 -0.623993520402498     
 -0.459922139057504     
  0.182575514867170     
  0.425026070035317     
  0.219408355620787     
 -0.209997225782147     
 -0.182585431988186     
  0.696394407315427     
 -8.973107243723870E-002
 -0.478042937592284     
 -9.642596774158832E-002
 -0.331052209045203     
 -0.375909621188458     
  0.315545596962185     
 -0.181104676725907     
 -0.448151167871979     
 -0.332712026150601     
  8.141148576469032E-002
  8.522052802040124E-002
 -0.131221602036237     
  0.166779587694363     
 -0.683282636909305     
 -0.373088577426640     
 -4.092399429606437E-002
 -0.261829990236530     
   1.26838869702081     
  0.439035657143794     
  -1.20498323818810     
  0.504429645675710     
  5.895822353176498E-002
 -9.817136983472101E-003
  0.457794917925056     
 -0.811427905655639     
  0.294158773637851     
  0.125716787071531     
 -0.665524889372779     
  0.132268844866028     
  0.524699643792303     
 -0.749179580701855     
 -0.766865153898645     
  -1.03810018495203     
  0.463031436548737     
  0.463424959914460     
  0.982248564036606     
  4.651837689752802E-002
 -0.569579717255954     
 -0.512384359321604     
  0.105286682227879     
  0.562228658563714     
  0.120304147884225     
 -5.602885892343076E-002
  0.298481470952172     
 -0.171015585479831     
  0.219946858865012     
 -1.279257018312616E-002
 -0.609763040233227     
  0.775384736904598     
 -0.474450985086719     
  -1.16096449494671     
  0.114002684347817     
   1.20468827892710     
  9.254901343141937E-002
  0.180162044127651     
 -0.828592817096210     
 -0.730971570005532     
 -0.684611134125475     
 -0.224018640582371     
  0.447811936111242     
  0.551961747805465     
  0.459748499868212     
  0.114998398976911     
 -0.802211233935064     
 -0.281059325995606     
  0.441426074642877     
 -0.429597471734811     
   1.01354482572232     
 -0.485317535410594     
  -1.20221637704526     
  0.732143110619839     
  4.413640374838430E-002
  0.170902422581888     
  0.633609900581512     
 -0.654850325478158     
 -4.927544522753766E-002
  0.373944098071244     
  4.383783331804057E-002
  8.925877266243702E-002
  0.238747846984652     
 -0.102360540313197     
  -1.68115856297462     
  3.726374580211989E-002
 -0.442473368399778     
 -0.570202380174088     
 -0.586820114285797     
   1.43886156497260     
 -5.036707552652239E-003
 -0.418388684702615     
 -0.381727597830586     
 -0.674815384091986     
  0.118323979358210     
  0.693857818848888     
  -1.17624759396771     
  0.532317279392335     
  0.478951373836862     
  0.333369117258208     
 -0.713763681018839     
  0.284655663889039     
  0.235406546297395     
 -0.691880960308771     
  0.413311144940807     
 -0.205987912173590     
  0.322873339774905     
 -0.388071394817173     
  0.850531575935557     
 -0.147425421657346     
  0.573180683762281     
 -0.804105207321456     
  0.157650336101634     
 -0.195920381465548     
  8.937777147925630E-002
 -0.570840901460856     
  8.938428036027665E-002
  0.249647228130619     
 -0.240263117143106     
  0.655719088019583     
 -0.301993340070784     
  0.760417930561719     
  9.341527777375675E-003
  2.273248058475688E-002
 -0.352234047433008     
  0.459035769972906     
 -0.671468235715862     
  8.049482364289007E-002
 -0.375542990098058     
 -0.344191694267127     
 -0.795906810691329     
  0.108842874934430     
 -0.658911661712015     
  7.245406691830046E-002
 -0.117600930429947     
 -0.175387975007499     
  -1.02841245988535     
 -9.394442814493892E-002
 -0.259773627291447     
  4.884745532941387E-002
   1.16051980643855     
  0.175079075023013     
 -0.367897067814259     
  0.917763712921830     
 -0.459431948418208     
  0.373654987792902     
 -0.266709112565494     
  -1.08221200606976     
 -0.346595706842214     
 -0.334151284695505     
  8.504820858615283E-002
 -0.104424816170966     
 -0.569077772066290     
 -0.127857937686523     
  2.742038807942304E-002
 -0.273777022054335     
  0.687076041290684     
 -6.309911553773820E-002
 -0.493883841860201     
 -0.943076714094472     
  0.645433748049276     
  0.244030171433817     
   1.02043404447793     
   1.32048652873609     
  0.974408536431987     
 -0.534069836189304     
  0.104356626839843     
  0.145394642326827     
  0.198308917969374     
 -0.451523592937387     
  -1.35071604089249     
 -0.307431477814366     
 -0.344705122914526     
   1.23342213673531     
   1.09429470043800     
  0.374434123061379     
 -0.202503415572874     
   1.11067142759175     
 -0.687495934579879     
  0.338397998522509     
 -0.526729689138420     
 -0.528151975301515     
  0.202800221887229     
  0.269107744503039     
  0.394812979945043     
  0.444151948490831     
   1.38543054177192     
  0.355050063902507     
  0.453266845794017     
  0.122588205134156     
 -0.317411029153519     
  0.538386526734736     
  0.578586493373598     
 -0.498072378335376     
  0.456421824242913     
 -0.198977065269257     
  0.484252168164366     
  0.700328162784716     
 -0.533304306501706     
 -0.178875644150546     
  2.927337952615364E-002
 -0.150794014479422     
  0.170602764047815     
  0.465580600721726     
  0.723798209105762     
 -0.633513255129248     
 -0.446762434805193     
 -0.749335731795016     
  0.288566221771956     
 -0.194987782499917     
  0.485501436605413     
  0.449587484719461     
 -8.873783446132097E-002
  0.541910849464869     
  0.330834838892811     
 -6.757799145496185E-002
  5.870050909949081E-002
 -0.325443868330874     
 -0.238594017859087     
  9.074756103690433E-002
 -3.201528648381726E-002
 -5.380481486713856E-002
 -0.193278823964653     
  0.600193827857960     
 -0.479925308885530     
  0.560676901112400     
  0.704307819893914     
  0.519452678860824     
  5.233175627306851E-002
  0.462118205364070     
 -0.243771399072651     
  2.762556442006377E-002
  8.108549955328247E-002
  0.331111011078321     
 -0.125687473468865     
 -0.109331866217462     
  2.876223946611929E-002
 -0.113303635699329     
 -0.369177645159329     
  0.766627575962890     
  0.181642264987358     
 -0.219532769482640     
 -0.814644042908748     
 -0.318476057187347     
  1.366546390565418E-003
 -0.393598991033103     
 -0.684393768854179     
 -0.184327706461251     
 -0.171417578185899     
 -0.209831153510238     
 -0.100440995102845     
 -0.419567633164015     
 -5.194782793444045E-002
   1.01333661519979     
   1.14580430320884     
  0.543312850819594     
 -0.295562574431711     
 
  0.861383834547040     
  0.816577997600235     
 -6.357160552092295E-002
 -0.465078958435569     
 -0.420490182909729     
 -3.458255749226503E-002
  0.807298747954899     
 -0.591915507351292     
   1.10004528074250     
  0.515244774944660     
 -4.482940681347326E-002
  0.131163451521155     
 -0.250620280348015     
  0.910466598018470     
  5.888939884233953E-003
 -6.809125179000343E-002
 -0.276743801612486     
 -0.235404686596919     
  2.277461188756820E-002
 -6.462616376455917E-002
  0.630857386362612     
  0.391672538642392     
  0.655585301486797     
 -0.549296091545779     
 -0.727788671476179     
 
  0.567179063477238     
   1.92676119558792     
  -4.17975696216453     
  -8.66018579109305     
  -10.2413134809265     
  -4.37734892930964     
   2.14210570013267     
  -8.08153556447599     
  -2.72006296419536     
 -0.344845245081831     
  -3.30911608453123     
  -1.90452829448881     
   6.82158165501225     
   3.06428832519081     
   2.84811367669689     
   1.82679812656331     
  -1.33897853792876     
  -1.51463162587581     
  0.657406177460583     
   9.38242537858332     
  -3.16306556620225     
  -3.77761161959463     
  0.543158292217586     
   5.67298096504451     
   1.68956233231180     
 
  -8.52069460000000     
 
  tansig  tansig 
