     48 -    25 -    25 -     1 
rmse=  21.1916meV
  0.108445739530846     
 -9.845468544828567E-002
 -0.238855661954781     
  0.271113969089150     
  0.243534275379988     
  0.200931936534737     
 -4.237511842126758E-002
 -5.865696573203068E-002
 -0.181970541481877     
 -0.193268340299848     
  5.155592984445635E-002
 -6.347019292410827E-002
 -8.511857525254095E-002
  0.383779604277996     
 -6.885695971842999E-002
 -0.281285500887883     
  8.627934229645137E-002
  0.161383263282216     
  0.344169132222445     
  0.127090348693076     
 -0.292075457966289     
 -0.101152555400183     
 -7.810803295619999E-002
 -6.879876759668863E-002
 -0.280244765639571     
  0.183668261779020     
 -0.200905676821181     
  6.182472093768525E-002
 -0.153351189906018     
 -0.104496795104692     
 -9.914741266816486E-002
  0.208590246379174     
 -0.187937376130142     
 -0.210564691939104     
 -2.379582592145739E-002
 -0.148997925807561     
 -4.801937045693930E-003
 -0.140869504773809     
 -4.610128956261077E-002
  0.171375897892477     
 -0.114679316659956     
  0.151801066507025     
 -1.742584540716836E-002
 -0.147085787106632     
 -2.203629081643861E-002
  8.233919969338079E-002
 -0.163328641235916     
  0.129322159215539     
 -0.126980867388405     
 -0.281165388528701     
 -0.359510728754389     
  0.149419717065785     
  0.208898338276780     
 -0.273023751600217     
 -0.446846341483854     
  3.035723833596025E-002
 -6.806310848395067E-002
 -0.180946210948984     
 -0.193635619567037     
 -8.158193968216204E-002
  0.221535553039588     
  0.246613256378651     
  3.012831323904011E-002
 -8.889848312678640E-003
  0.310067376011630     
 -0.134201459612985     
 -2.631088297305089E-002
 -0.129964667921233     
  3.475823297035039E-002
 -4.659279499561797E-002
  0.486681605425195     
  0.390544980518408     
 -0.163751696772237     
  0.177661323196384     
  0.332392026059414     
  0.303687905351632     
 -4.220833785853269E-002
 -0.343223784354193     
 -5.329903120672810E-002
  0.144399216280857     
  0.248301599632048     
 -0.292948129513856     
  0.301862464174361     
 -4.970924073095017E-002
 -7.863136882135015E-002
 -6.398926425993398E-002
  3.528291188560184E-004
 -2.226059631182130E-002
  7.318008824607110E-002
  1.774868043329803E-002
 -0.147996438888414     
 -6.027610153428516E-002
  0.102396340197444     
  8.714951356253532E-002
  0.242830090216929     
 -7.315915509331870E-002
 -0.186800545945461     
  3.149988339891333E-002
  0.193469276006335     
 -1.539344702385861E-002
 -2.572742903109385E-002
 -0.481602294183627     
 -0.337588637798012     
  0.123231038642162     
 -0.202371996421423     
 -0.230595387763015     
  0.203593379070768     
  0.229853734709704     
 -0.209214019996053     
  0.139228911324250     
 -2.592412895449285E-002
  9.512124136927157E-002
  0.282834422429897     
 -4.839544885291801E-002
 -0.188133038591414     
 -4.043232673283594E-002
 -5.770603401023833E-002
  3.198467577992196E-002
  0.110057306649135     
  0.189788540116414     
 -3.127414420808544E-002
 -0.109251123724946     
 -0.117648271922120     
  7.827494261618433E-002
  0.210895449712279     
  8.071717888250637E-002
 -0.113539482915531     
  4.459747932981394E-002
 -2.952146247357355E-002
  3.780078794179993E-002
  0.201712581260009     
  0.134512280949803     
  0.211477479060682     
  0.230334465620153     
 -0.161349698846598     
  4.730415788477316E-002
  0.271460159983869     
 -0.129480332385075     
  8.034363995714248E-002
  0.114647560721736     
 -0.383441291561428     
  0.181653390451040     
  0.103140831825866     
 -5.170261317039095E-003
  0.234026138833680     
 -0.211075330310498     
 -0.218882029709844     
  0.207671547161908     
  0.100020228203881     
  1.625084375558306E-002
 -0.248943872550824     
 -5.349655688796019E-003
  0.311162236233834     
  0.421101049342187     
 -0.366944458350124     
 -0.164190320487438     
 -0.117291960339379     
  0.159251309192206     
 -9.430568518572552E-002
 -0.308442824222112     
  4.565095054372843E-002
  8.122131791864658E-002
  0.240765740949091     
 -0.257150481663474     
 -0.127486297768080     
 -7.475660375053883E-002
  0.295901784977948     
  0.173171048899511     
 -0.149638901375931     
 -2.020866978891267E-002
 -0.160468429502812     
 -9.799628659286160E-002
 -7.504256773699325E-002
  8.625470491155365E-002
 -0.125712820060916     
  0.146889777461029     
  7.008016312416443E-002
 -3.021994584078530E-002
 -2.971867263642564E-002
  0.201080415302126     
 -2.125199775506438E-002
 -0.273922728824444     
 -9.101174345644102E-002
  6.465635028562383E-002
  4.671060448729852E-002
  8.851181567752368E-002
  3.850588993015097E-002
  0.288782451234189     
 -7.039490766217957E-002
 -7.528923230437923E-002
  0.142949652278895     
  0.224787427702779     
  0.196081845633048     
 -0.190830756091981     
  3.142474016518727E-002
  0.250738874326174     
  0.105483299172902     
  0.110484953824388     
 -0.276682595776375     
 -0.382841856645841     
  2.496633231609174E-002
  0.366232815818019     
 -0.338969311195214     
  8.283816703648619E-002
  1.350616103370057E-002
 -3.204922103270295E-003
  0.190305775204616     
 -0.236101083795419     
  0.351115786083209     
 -0.273324901308737     
  0.255588812427154     
 -0.252449137269478     
  0.185449537768919     
  0.128262199938624     
  7.589429778973464E-002
  0.166463659073860     
 -0.218214966385894     
  0.273050189155492     
 -0.278751238745767     
 -0.106911857760828     
 -0.133087877468192     
 -2.119618954687390E-002
  0.112171193483019     
 -5.190783600368346E-002
 -5.328713955347237E-002
  2.999781063211582E-002
 -7.206218219224034E-002
 -0.262465698451077     
  8.226048451434068E-002
  5.739955921602210E-003
 -5.592013594878286E-002
  0.230593624791129     
 -0.163108680965977     
 -0.168235633198922     
 -6.829214399208564E-002
  0.224700159285883     
 -0.175132852802566     
  9.141591359041121E-002
 -0.104988659632742     
  9.795475439043774E-002
  0.416619311262604     
 -9.867711232591377E-002
 -4.241307654911141E-003
  0.261182733320074     
  0.199213991058032     
  0.263931532213999     
 -0.159695576999539     
 -0.352640964402011     
 -5.411751503908612E-002
  0.146981469244387     
  0.150437367550429     
 -0.283435156641277     
  0.277582618329516     
  3.785260430478785E-002
 -9.592377241573978E-002
  0.204640911426596     
  0.192019486666505     
  9.550568106043890E-002
  0.272995596928817     
 -0.410319743135518     
 -0.125562655354343     
  0.294893074846977     
 -0.194209078069715     
  3.998422745554083E-002
  0.150148224887780     
 -4.959161147528016E-002
  0.168522856500540     
 -3.605060111207457E-002
  0.132962947823827     
 -4.625666653068001E-002
  2.795421101910500E-002
 -0.147260898272256     
 -0.131730387362520     
 -7.763104518522808E-003
  0.235681723294383     
 -5.955504909294454E-002
 -0.339047033147680     
  5.387780461249024E-002
 -0.191557571114128     
  0.455468041228387     
 -0.307685872089823     
 -4.948056920510348E-002
  1.714560709426276E-002
 -4.275482202971996E-003
 -0.243897361515547     
 -1.350438428306197E-002
 -8.919843118803163E-002
  9.336510471668069E-002
  0.243567989149313     
 -0.143377929359378     
  0.274209534574017     
 -0.149366792196738     
 -0.479805827203548     
 -0.335900314925897     
  0.204899212505439     
  0.288347973266436     
 -2.678993641036213E-002
 -0.115507183564162     
  6.907556012388742E-002
  0.141521773794138     
  0.206822140520785     
  0.139500814639859     
 -0.246921824195571     
 -0.187434699609059     
  0.161873423221475     
  8.769335588760961E-002
  0.406348393299842     
 -6.276878570655141E-003
 -4.822535076700597E-002
  0.275763456439294     
 -0.283047378111036     
 -4.978766387101117E-003
  0.327221903212181     
 -0.259138445861180     
 -9.784701450537286E-002
  9.689260468696151E-002
 -0.366910710482590     
 -0.257160618251027     
  0.125378485841174     
 -0.135497827361344     
  7.538495622136580E-002
 -1.082160842681849E-002
  0.178979887009207     
 -2.776411175824097E-002
  0.270958746041313     
 -2.958500912881645E-002
 -0.232806405428270     
  7.495616968943135E-002
 -0.133917735767861     
  0.151305588886303     
  0.167079272498493     
 -8.195298403992153E-002
  2.638463839589307E-002
  0.214712313699768     
  8.202253140128708E-005
 -3.448435346698801E-002
  0.212928601257979     
  0.140765810853766     
 -0.583934947324333     
 -0.202922367624248     
 -4.153281601025665E-002
  5.928770423470949E-002
  0.278151103057045     
  0.257770538030555     
  0.236812580577078     
  1.738144451249563E-002
  6.788730312776335E-002
  0.189601898531028     
  0.215665786134975     
  0.446287752467496     
  0.105460577775717     
 -0.201903258353810     
 -1.966303302777114E-002
 -0.220821742652910     
  0.330123184001022     
  0.138949246921198     
  7.588659558266607E-002
  0.196670811924400     
  0.197562104217670     
  6.524196824138810E-002
  5.399427557145375E-002
 -0.201972554432573     
 -0.203613497565561     
  0.187325751561508     
 -0.196865899059951     
 -0.365186165500613     
  4.165892774723041E-002
  3.742547952495272E-002
 -2.959771469464478E-002
 -9.281621226664523E-002
  0.328211223464370     
 -6.471996189312237E-002
  0.291074176281625     
 -4.218704484179592E-002
 -0.190933193164442     
  0.145346248729606     
  4.814682453547607E-002
 -0.193897213621011     
  0.223126290110040     
 -4.983881022072760E-002
 -2.977909385589455E-002
 -1.999286541656009E-002
  0.126249688640454     
  0.151564621247070     
 -5.213739629285692E-002
 -0.129957138229641     
  0.116203237013081     
  0.306029605982170     
  0.338294340450276     
 -0.137737008832490     
 -0.186726059374164     
 -5.473973292197872E-002
 -0.151827988280536     
  1.842667369851386E-002
 -0.213994068384421     
 -7.463522569457612E-002
  0.128680771022978     
 -0.147630047263032     
 -0.250578506412460     
 -0.237224597512257     
 -0.262746019607512     
  0.200365923452781     
 -0.106026319827752     
  0.269992694503348     
  8.069279293151858E-002
 -0.113048277033247     
  2.300555696509995E-002
 -4.817650530139168E-002
 -6.591492847208824E-002
 -0.140849432120283     
  0.253885268256663     
  1.496606681349153E-002
 -0.434992439617498     
 -8.152193650299600E-002
  0.126028032713555     
 -5.890212749996014E-002
  0.345114607059889     
 -0.251975871320201     
 -0.120980499345296     
 -0.150156860243343     
 -7.887570391367880E-002
  5.182382528861964E-002
  0.215240717572921     
 -0.313638188652442     
  0.485338430569992     
 -5.765846322387103E-002
 -0.119611517520263     
  0.156619985194385     
 -1.052464269490219E-002
  5.268365247200583E-002
  7.497364275229426E-002
  0.108272594568511     
  0.235553755771972     
 -0.220203973142463     
  0.182979929111176     
 -1.446704391853775E-002
  0.140353403349957     
  0.154523215715234     
  0.170844272272613     
  0.196429748971265     
  0.309112707258851     
  7.918400952687991E-002
 -0.259703806104145     
 -0.239468144547136     
 -0.132782601098564     
 -0.457283474116807     
  0.123086437755140     
 -6.491537068769343E-002
  0.149254779990551     
  4.093251120999906E-002
 -0.348088511667779     
  5.074609340176638E-002
 -0.109456926792193     
 -0.568161916234588     
  9.025608770600281E-002
  0.125357447451699     
 -0.113385023347043     
  9.858950944809715E-002
  0.271855066210243     
  1.915389139960665E-003
 -0.133407998643260     
  6.786401248827910E-002
  0.149449771499611     
 -7.182826451715141E-002
 -7.997609621790032E-002
 -5.584893998674097E-002
 -6.654186205865541E-002
  0.116324302635729     
 -0.154548984451384     
 -8.507577580033104E-002
 -0.402019530182888     
 -0.208564338608913     
 -8.129523873513579E-002
  0.255384894597807     
  1.353384257683917E-002
  2.314468268211689E-002
  0.412599139528948     
 -4.132027029311715E-002
  2.668534788234777E-003
  9.186433838599627E-002
  0.131774017611184     
 -5.649808568743876E-002
  0.274503910943548     
 -9.095513522726857E-002
  2.364361188808615E-002
 -0.151167555425500     
  9.349413251070635E-002
 -0.295330175271788     
  2.163861042239399E-002
  0.191234013612123     
 -0.285119121043518     
  6.292623064319443E-002
  0.139106531041850     
  0.172506872869281     
 -5.842141357937213E-003
 -2.104920988519264E-002
 -4.880782510246667E-002
  0.149579676766744     
  0.204581198783969     
  3.505202056009857E-002
  0.269656687974856     
 -0.300751521018327     
  0.293927492912868     
 -2.198160227634488E-002
 -0.215493399732346     
  9.256619541152508E-002
 -7.047318934373860E-002
  2.872171259123187E-002
 -1.833883292869761E-002
  4.907697513146524E-002
  0.162518711869006     
 -0.280733205383933     
  9.382103616010086E-002
 -9.124899503465418E-002
  6.313056139577218E-003
  0.162224824104465     
  7.173724865987796E-002
  0.149005979515331     
 -1.371177604384237E-002
 -9.906257658457655E-003
  3.233762554749201E-002
  8.810349516132895E-002
  0.112345292565527     
  2.373411325565838E-002
 -0.145182476365469     
 -0.370753567951972     
  9.819738325930173E-003
  0.106974354173179     
  6.655981027352575E-003
  0.142160701568031     
 -0.344090770481358     
  0.222824207593092     
 -1.266168170421884E-002
 -0.246184183824267     
  0.116946529713084     
  0.126763802464417     
 -0.128084700994567     
  2.144935650369018E-002
 -8.401217318160428E-002
  3.417528391466856E-002
  5.029545445998479E-002
  5.486235481912934E-002
  3.798631617934351E-002
 -0.122818125276416     
  3.624033630639305E-002
 -8.537914991311960E-002
  5.918857775028939E-002
 -0.162097101663469     
 -3.859767973687731E-002
 -0.159226054734841     
  4.189115379052123E-002
 -0.157608663376640     
  0.238993942943493     
  0.189142807748429     
  0.181124868827996     
  4.766640332577339E-002
  3.565484840025723E-002
 -9.051996769078671E-002
  0.295118084368997     
 -0.205800153951318     
  0.155922313163658     
  3.800399640496743E-002
 -0.113756726904467     
  0.379812174310029     
 -2.402204717648940E-002
 -0.135658568176578     
  0.176710557898144     
 -0.251153228330997     
  5.400080384573901E-002
 -0.152729479320644     
  1.978731425438501E-002
 -6.569217466203990E-002
  7.009377234500097E-002
 -0.376140542572498     
  0.161809810421455     
  1.380575249288752E-002
 -0.147013424710749     
  7.600546860120796E-002
  8.460626924571785E-002
 -8.483920052736348E-002
  2.348502648144008E-003
  0.171796723538741     
 -3.358589627429271E-002
 -0.257074963755284     
  7.276845727199928E-002
 -8.407317839756702E-002
  6.932261729564972E-002
 -0.291660707584085     
  5.403241326625220E-003
  0.101593546364543     
 -0.215821744955240     
  9.502654656820575E-002
  9.119981552314455E-002
 -0.188653274906012     
  0.131857329098833     
  0.136463591972652     
 -8.719084246619389E-002
  0.236658974441358     
  0.147307909169665     
 -4.342144165624218E-003
 -0.156943810214273     
 -0.231095757439853     
 -0.141866794230046     
 -0.473365853154967     
  6.425368995159046E-002
 -0.100985433330473     
 -0.160740491343709     
  6.879205215296977E-002
 -5.113364289688773E-002
  4.355953658219704E-002
 -2.574696068420091E-002
 -0.201290616600623     
 -3.608963682090348E-002
  7.239366118032020E-002
 -0.172924772617475     
  0.335042874094252     
  2.133756984879539E-002
  0.125390260778748     
  0.190283731753529     
  5.691327656273780E-002
 -1.314189751068062E-002
  7.681215163740993E-002
 -3.001569344944664E-002
  8.453857793008857E-003
  4.834927276683193E-002
  8.859973187108020E-003
  2.813878168793263E-002
  0.223711231625836     
  8.292493801826412E-003
  0.187202875986165     
 -0.348017000692037     
  0.271599486735383     
 -0.132994920786498     
 -9.539360531341898E-002
  0.276243184098963     
  7.914705211978613E-002
 -3.502709808471588E-002
  4.912231685205527E-002
  0.166423156282913     
  2.473479900047713E-002
 -0.193002758624603     
  6.043987095838631E-002
 -3.061390696432722E-002
 -6.722295311643439E-002
  1.096310063417758E-002
 -5.373110956436797E-002
 -2.646641139576008E-003
  0.194224708383164     
  3.891370672761966E-002
 -7.083698759098503E-002
  0.133615538001699     
  1.997998090360182E-002
 -3.157680096936837E-002
  0.255229531301194     
 -0.156745001726499     
  8.406295684468888E-002
 -0.304985320541418     
 -3.143482967040315E-002
  0.166894966630334     
 -0.254694231242987     
  2.428558911564129E-003
  0.143796028842759     
 -6.394377997296366E-002
 -5.441089842000416E-002
 -6.116181602355247E-003
 -8.900116983238074E-002
 -0.123211717192768     
 -3.441879028971034E-002
 -3.446054865944144E-002
 -3.525164085750714E-003
 -0.150266377048764     
  3.991342616572023E-002
 -2.371143073267748E-003
  0.139453308349179     
  5.910030289264169E-002
  0.316022525857498     
  0.157544818402671     
  0.139067418319896     
 -9.536240342385002E-002
  9.486806072125381E-002
  7.736624568757165E-002
  0.231313359327811     
 -0.109054941151482     
  2.082979549928202E-002
 -0.197827741742688     
 -0.153062600570241     
  0.103936839499874     
 -0.272131338891231     
 -2.455251270296380E-002
  9.868063994120538E-002
 -9.495533689272639E-002
  0.198407380442362     
 -0.271800632014834     
  0.218584083717787     
 -0.493559460747641     
  0.255845205305810     
 -2.416061852080672E-002
  0.272801052644804     
  0.300626436962614     
  0.112974887032401     
 -3.223698835820541E-002
  2.841687610246979E-002
  0.149115270783050     
 -2.909686108357554E-002
 -0.116996736297873     
 -7.070029100536589E-002
  0.108556847628826     
 -3.367972704100552E-002
 -8.842184225890293E-002
 -6.268222926791861E-002
  4.220925089277973E-002
 -0.396363308071568     
  1.510256013764586E-002
 -0.191845567777429     
 -0.238538517450690     
  5.118847008750537E-002
  7.015037779196058E-002
 -4.407074413653871E-002
 -3.981068849995668E-003
  0.165694848153321     
 -0.204564497739345     
 -3.640147128412716E-002
  6.235937758386450E-002
 -0.112634369093565     
  0.209926946069347     
 -8.458255222916652E-002
 -0.359919905804748     
 -0.243767703989003     
 -7.449629983683870E-002
  8.555209546031492E-002
  0.448210600189238     
 -4.281390634863221E-002
  0.310525287064626     
  0.243212147105904     
  0.103124360685111     
 -0.199942158713756     
  3.968499088125631E-002
  5.125935641459340E-002
 -6.118990758924117E-002
 -2.800397244655126E-002
  0.359647305044615     
 -0.150298265743365     
  0.226543274710013     
 -0.171211626420208     
  0.288594874518643     
  0.156510292462536     
 -7.090653722456701E-003
 -2.438747916422936E-002
  0.225419448046579     
  0.357177699492144     
 -9.711130372288723E-002
  3.841698357157240E-002
 -1.354519630897361E-002
 -0.153789745297985     
  0.262666025311246     
 -0.214829847491010     
  0.239545624987760     
  0.228221932282760     
  0.176431457135508     
  2.231945183577875E-002
 -0.136649316828767     
 -0.467467672551179     
 -0.158763875793534     
 -5.616530683440495E-002
 -0.313135983093396     
 -0.195303123881674     
 -8.185202297314982E-002
  9.244229425524604E-002
 -0.111638675605271     
 -0.129927778277440     
 -4.218959334685927E-003
 -4.470226378527907E-002
 -6.730930644840678E-002
 -0.248793699753873     
 -1.291899054731819E-003
  4.934206635906169E-002
 -2.213854797070387E-002
 -0.386194128350166     
 -5.510689694253787E-002
 -0.174603520118412     
 -0.205705167630204     
  0.275032820592773     
  0.231616347388499     
 -0.206745679662621     
  0.522675881104432     
  3.454527719879392E-002
 -4.129651562439721E-002
  3.986808447247555E-003
  0.170610527886531     
 -0.113978591131598     
  0.210922971161047     
 -3.317253778386445E-002
 -0.341718596993831     
  0.149741433254470     
 -2.387511817371872E-002
  0.126169240814072     
  1.620969919529356E-002
 -0.131357932646823     
  0.300105488163166     
 -0.249779316006224     
  0.401620774233620     
  9.369705340395491E-002
  6.716748155195343E-002
  0.179388488604496     
  2.929761962460663E-002
 -7.418163173127885E-002
 -0.159157874025894     
  0.157418881567333     
  0.166151786365685     
  0.255290924718005     
  0.169517501091366     
 -5.908981011165875E-003
 -0.211132664055562     
 -0.176327482099335     
 -8.890019357877875E-002
  0.184865653611818     
 -6.640682815238418E-003
 -0.113149448296594     
  2.555885257692458E-002
  6.625173325074402E-002
 -0.133516304905469     
 -4.767792891723316E-002
 -9.746326512988994E-002
 -0.133932842008353     
 -2.237555099107174E-002
 -0.259431633077501     
 -0.101673228651522     
  0.207080774825714     
 -4.401221315582484E-002
 -0.231952887595081     
 -0.110621284378107     
 -0.485926097321490     
  5.495305210896669E-002
  6.960165749872922E-003
 -0.223583172002214     
 -2.070197626191581E-002
 -9.145375557036183E-004
  1.981725419669565E-004
  0.158703203557409     
  2.811051699855642E-002
 -0.161755923181772     
  0.228276388343270     
 -0.146348735422706     
 -0.210202976461701     
 -0.185485832400010     
 -0.126248478952223     
  0.254442339652344     
  0.175359824374504     
  3.345639557324756E-002
 -1.428482195389039E-003
 -0.111354120538831     
 -0.143680978828894     
  0.198567756125555     
 -0.117644974029250     
  4.561340680074612E-002
  1.371834993555086E-002
  0.351030516969709     
 -0.313181823894293     
 -4.140074803969863E-002
  2.726327370756351E-002
  0.311087927851075     
 -0.155948663184477     
  0.219528289963538     
 -6.946200518985861E-002
  0.145859035471544     
 -0.113478570254191     
 -0.152907525008208     
 -0.140722908074266     
 -8.773133662432017E-002
 -9.882680650159655E-002
  3.157578695875923E-002
 -0.271748059477602     
 -0.163375082424615     
 -0.159831618647244     
 -2.102652882387075E-002
  3.885576662019346E-002
 -0.145050851251545     
  8.229760452005604E-002
  9.782100204824007E-002
  3.496201939627291E-002
  6.285784237300097E-003
 -0.313513818477871     
 -0.104291076913211     
 -6.141867026061749E-002
 -0.121154398254547     
  7.029139186788015E-002
  8.602931546231919E-002
 -0.308490068702790     
 -4.330181307771015E-002
  0.147880911397312     
  2.670340376975672E-002
  3.223930282401875E-002
  9.684622849321829E-002
 -0.233549219463133     
 -8.207552576593349E-002
  0.239515381943173     
  5.170192335339802E-002
  9.155976086983411E-002
  1.825176113665963E-003
  0.147904086207337     
 -0.158337527443829     
 -5.123957603014336E-002
 -0.138556892368120     
  0.132655967792137     
  0.135207414699402     
  9.811223010147191E-002
 -0.145906815941599     
 -7.656376104749621E-002
  0.202532704785268     
  0.371508804634266     
 -0.107355708563168     
 -0.220994013564449     
  0.161868731837221     
  1.255631946541489E-002
 -5.401073951589236E-003
  0.121925018008695     
  0.105211051578278     
 -1.461582399044359E-003
  6.778649816080992E-002
 -3.214513316781734E-002
  3.423899380296187E-003
  9.074703057198324E-002
  9.901532328604387E-002
 -0.127928203673869     
  0.206536138643905     
  2.324099697839584E-002
 -0.242436394406970     
 -0.159554749474628     
 -0.257227466408007     
 -0.242336246105294     
 -4.396607095531396E-002
 -0.112572513485802     
 -8.443019990104293E-003
 -4.204978440355733E-002
  0.253970307769151     
 -9.009351534663078E-002
  0.237123238244761     
 -0.187577911027311     
  0.133551817321845     
 -1.596051445234626E-002
 -0.203101512407882     
 -0.121918281910394     
 -0.128745221092870     
  0.242894204267276     
 -0.334807250836599     
  1.898150087823438E-002
  7.132645771408939E-002
 -0.232394095028519     
 -2.120057458726784E-002
 -1.875618006959666E-002
 -8.507892490969772E-002
  0.211922658044368     
 -8.726058995056740E-003
 -0.172013807064280     
 -4.199919494730425E-002
 -5.813644092085094E-003
  0.167395828757265     
  4.439450595946531E-002
  0.154645216945658     
  8.546922027797561E-002
 -0.302563437213933     
  0.383566635194094     
 -0.214596402406572     
 -0.101753270193633     
  5.110860567602202E-002
  0.149761636905725     
  4.811617078998934E-002
 -4.215769392993617E-002
  0.112246680916135     
  0.165788782470924     
 -6.585686240880195E-002
  1.114367028042526E-002
  0.136196479865487     
 -0.294055954178540     
  5.320053537227268E-002
 -0.163563014512624     
 -5.071865921011812E-002
  4.898170882886092E-002
  0.296748532985095     
 -9.245143365726864E-002
  0.406645223682053     
 -0.443970899419193     
 -0.238496248140939     
  0.370395898774139     
 -0.129721151674601     
 -4.748444496168006E-002
  0.218213642170116     
 -2.387396636914991E-002
 -0.133401250715969     
 -5.343892380373462E-002
  0.207190916041667     
 -0.113697815501328     
  0.140061912517351     
  1.024681964408025E-003
  0.122613633861096     
  7.826234699704028E-002
 -0.160186967454804     
  0.314215404977911     
 -0.495659625379952     
  4.022894316628171E-002
 -7.999468956311481E-002
 -3.870054826515840E-003
 -4.181103619755400E-002
  3.316393371100868E-002
  8.949905583165300E-002
  7.157758930408810E-002
 -5.737645193631409E-003
  5.318792247466095E-002
  0.279732313890062     
 -0.231500144998922     
  4.701370615570599E-002
 -1.253989821659386E-002
  0.298234675942050     
 -0.228788831625181     
 -0.258675400991064     
  0.254597516405451     
  2.978527495590247E-002
 -0.178719002316054     
  0.198769044926510     
 -0.304014894879916     
 -1.883137509279542E-002
  0.208118410219271     
  5.693637627887849E-002
 -0.233547903033538     
  7.238981337695717E-003
  5.208719955268996E-002
  0.222890087481595     
 -0.165467236376172     
  0.129446321257168     
  7.658750761972438E-002
 -8.234822824203300E-002
  0.102015886046093     
  0.130182486373093     
  2.228513522455065E-002
  0.180099584308344     
 -0.269466750976383     
 -4.092572094900865E-002
 -9.189418805671803E-002
  0.160610674305265     
 -0.107625279708168     
  0.108265427412488     
 -0.189919531672047     
  5.712606460183882E-002
 -8.064708702423910E-002
  1.528070358481271E-002
  3.022898609915656E-002
 -8.442133627888257E-002
 -9.532356294191750E-002
  2.830558767662585E-002
 -0.143314175322872     
  5.174312641024212E-002
  6.424436245096594E-002
 -0.108630682206097     
 -0.129453667083907     
 -1.219080947138767E-002
  0.112267330828902     
 -2.681300491879886E-002
 -2.077722455445995E-002
  0.423977670360430     
 -6.368282837885575E-002
  0.186130972797783     
  1.330570124493649E-002
 -0.499605350430836     
 -0.111651238859226     
  0.243105594125594     
  8.120475230997806E-002
 -0.157460511091262     
 -0.127411496565432     
  2.750008081850610E-002
 -2.816559053131911E-002
  0.170670666712478     
 -0.119980699077303     
 -8.210952398668018E-003
 -0.158246070153834     
 -2.109685078218106E-002
 -6.593477775241158E-002
  8.878020212912921E-002
  2.476047995536550E-002
 -7.394379086853035E-002
 -0.150189046558913     
  2.662930511971020E-003
  0.317498555874589     
 -0.137014628542290     
  0.112473942716731     
  0.123103672442309     
 -0.106456633966094     
  0.234436959751550     
 -8.260068625171176E-002
 -0.124005434910265     
 -2.820943830680485E-002
 -0.129116757290129     
  6.212235731727248E-002
  0.190683230533687     
  5.749009146171809E-002
  0.197008105848856     
 -2.720516068603036E-002
 -0.151738722078619     
  4.243584377775465E-002
 -0.235787972265641     
  0.187500142430689     
 -0.270841777938530     
  0.107651797373474     
 -8.351821405679404E-002
  4.837570372472252E-002
  4.732470933229479E-003
 -0.214133750766964     
  0.163702040452758     
 -5.849120527802569E-002
  8.357534072636302E-002
 -0.354140279833885     
 -5.186310388386952E-002
 -5.296292805259509E-002
  0.189249788132824     
  9.454163842983357E-003
 -7.916251098350090E-002
 -0.108985266598848     
  2.153480916705165E-002
  0.237616501850533     
 -0.296609643170887     
 -0.199301868286601     
 -0.103673918220830     
  0.266943887328397     
 -4.952527066999683E-002
 -0.127224557368440     
  0.218501666262546     
  0.267220214437695     
 -7.151169175169118E-002
 -0.266618188201571     
  0.173413442520053     
  0.242837442935460     
 -4.679803381308859E-002
  8.610634781738313E-002
  1.292370952819977E-002
 -0.149986993521876     
 -3.731972389586664E-002
  0.146335559804541     
  0.244365318087327     
 -0.183781482776203     
 -7.543986812640261E-003
  1.091707298220436E-002
  5.475905543852332E-002
 -0.111318695096167     
  0.345696031801626     
 -0.132200658495653     
  2.087663277355998E-002
 -0.288342585920039     
  6.696650835744962E-002
  9.362040366396731E-003
 -0.160900011058076     
  5.884563156783094E-002
  0.174430039136303     
 -6.281662433137976E-003
 -0.205729869183481     
  0.125908287631834     
  0.138738636079583     
 -0.166682328962645     
 -8.186709733933001E-002
  0.171681509392693     
 -9.991129968995068E-002
 -8.467574770757118E-002
 -0.126379208608655     
 -9.119629492113540E-002
 -0.269929447632001     
  1.740045319620296E-002
 -0.203064890715189     
  1.478493104024919E-002
 -0.499561784877144     
  0.346978224683314     
  0.109003437635505     
 -8.224030364163983E-002
 -4.738074442890971E-002
 -0.250070705867541     
  0.173527980306670     
 -1.752161515078958E-003
 -0.115519299242949     
 -4.582782260022492E-002
 -6.590961671706556E-002
  0.353051645624496     
  0.160847943304647     
 -0.105420664514875     
  0.317089696850215     
 -0.198758281607784     
 -0.195696422712753     
  0.116036608001831     
 -2.374641775818106E-002
  4.898798535426654E-002
  6.059027351806664E-003
  8.965645472493038E-002
 -0.298315810041215     
  7.118343610886525E-002
  0.136404243188865     
 -0.105503945446100     
 -0.141451760067082     
  0.125901262692723     
 -7.505630164401977E-002
 -0.135425516281979     
  2.306856653884125E-002
  0.204293575237458     
  7.147871400333161E-002
 -0.176481262394443     
 
  3.017628401241309E-002
  0.304425254080372     
 -0.265825134476482     
 -0.155105574101438     
 -0.288305883018795     
  8.889948477219656E-002
  1.578233961461982E-002
 -0.180222879685795     
 -0.112996698924863     
  0.237354396360500     
 -0.328924582972352     
  7.471742132441549E-002
  1.721079821673872E-002
  0.332490848921251     
 -0.169900124578782     
 -0.118583638934303     
 -0.249428661954451     
  0.392195643075623     
  3.930507634647443E-002
  0.245046170809024     
  0.112792854373806     
  5.875951058597357E-002
 -2.888827821719752E-002
 -0.165532863848436     
  6.775003835300582E-002
 
  5.641387952714349E-002
  1.131048828052947E-003
  0.381449646517740     
 -9.674006636605996E-003
 -0.152893476138060     
  0.354459129690184     
 -6.123304310722086E-002
  5.087706613805573E-002
  0.101322532413745     
 -0.241395445772395     
 -0.582224283163424     
  8.648288594691485E-002
  0.208858186529201     
  0.305637232440125     
  0.187311816974244     
 -0.338796130290159     
 -9.562165943675119E-002
  0.119790711416998     
 -0.164760708758855     
  5.556375030106419E-002
 -0.237050217298889     
 -0.144055325465148     
 -5.012000210141670E-002
  0.103205221334683     
 -0.201461368122926     
  3.861068056384012E-002
  3.010035957441354E-003
  1.466546315582897E-002
  0.379801896221906     
 -8.039330017467347E-002
 -0.413236600997995     
 -0.406986361993453     
  8.707676223044679E-002
  1.723530084255601E-002
 -0.822120458477269     
 -0.223570410631795     
 -8.914473474207907E-002
  0.117255338839358     
 -2.591718295569326E-003
  0.567805373993486     
 -0.143236314164882     
  0.111976284854768     
 -0.300956406744592     
 -0.116870381211456     
 -0.298271977222583     
  0.192182814831170     
 -0.175300328741175     
  7.698500204480427E-002
 -0.469959495374230     
  1.383294681312951E-002
 -9.881587208253965E-003
  0.154115532013451     
 -0.266250256572946     
 -4.189044247938511E-002
  0.395138765685824     
  0.385191040387313     
  9.220486499049597E-002
 -1.372603769421492E-002
  5.593080300322600E-002
  0.169755030070149     
  0.248198432967888     
  0.114660047282608     
  6.814053695734482E-002
 -0.126488401600429     
  6.732765336255132E-002
  8.923693748629415E-002
 -6.187735594061781E-002
  5.974209885258668E-002
  0.167616459841703     
 -0.133661081778739     
 -0.301901749207502     
 -0.231934369426742     
  0.191034144574720     
 -0.188971303925485     
 -0.120962025650356     
  0.318844711394777     
 -2.231866703434541E-002
  2.212989438977342E-002
 -0.177864392999645     
  1.462020480926347E-002
 -5.350400991235163E-002
 -0.131188972526077     
 -9.526699323475581E-002
 -0.121005760295438     
  0.130814282265302     
 -2.357223398442986E-002
 -1.866218882460323E-002
  0.378371399760897     
  7.152056189411116E-002
 -0.135163607019735     
 -1.015766546348688E-002
  0.273750909171238     
 -0.130037591244887     
  0.386767001049608     
 -0.232301322486573     
  0.261068457493030     
 -0.178901781674244     
  0.335261752643283     
 -5.731028475683614E-003
 -0.597983660274577     
  0.101399202078156     
  0.188733601261909     
  2.767922925758538E-003
  0.447250907962594     
 -0.241710043682004     
 -0.199822407072359     
  0.125697847030008     
  0.127250345837206     
 -0.192695731747735     
 -0.254845022095864     
  0.263563779147722     
 -0.307219037278200     
  0.226205422866702     
 -0.153371162744872     
  0.108805791065979     
  0.207402681880314     
 -5.327123466191086E-003
 -7.831845278958904E-002
 -3.845276393569992E-002
 -0.211325605511400     
  0.339512020139037     
 -1.673497496316628E-002
  0.397547741706315     
 -0.111694359188115     
  0.425251790162158     
  2.665554347179789E-002
 -0.108496726795889     
  4.009654634287023E-002
  0.268126311720355     
 -4.726459765602003E-002
  3.222564080427081E-003
  0.217785139009321     
 -0.406883512759517     
  0.185855262366481     
  9.296036886883140E-002
 -0.251810565693838     
 -4.575972131003754E-002
  0.135046475472003     
  6.174344109609626E-003
  0.108853057300002     
  0.172666089381443     
 -0.110868411219420     
  0.278390729603834     
 -6.198637905254635E-004
  5.769988405275918E-002
  0.340431461626211     
 -0.196395203335618     
 -6.583879232673082E-002
  2.837785994893080E-002
  6.089679601153041E-002
  6.892013941055858E-002
 -8.386309752807529E-002
 -1.054965977586134E-003
 -0.139714010013143     
 -9.273584949595534E-002
  0.296829778996656     
 -0.211255441110234     
  9.321839224780144E-002
 -5.920666715407761E-002
  0.300449109455825     
  0.420617552254768     
 -0.129564181151586     
 -0.138233646684066     
  0.181532513334470     
 -0.176867508720641     
 -8.751605487158996E-002
 -3.095605847079640E-002
  0.306559957974272     
  2.693940938938716E-002
 -0.129785284746155     
  0.130109794296725     
 -9.831279545795074E-002
 -0.310115472248690     
  0.339486121299881     
  0.198791884739934     
 -0.410068323998986     
 -6.165986152556988E-003
 -0.171012757307855     
  8.526107812081406E-002
  0.237582412884227     
  0.166215661064940     
 -0.220920361580727     
  4.036747503668017E-002
 -5.300057041137830E-002
  0.244121282923422     
 -0.171478809216934     
  9.788459644961038E-002
  0.161137676244829     
 -0.306101878564950     
 -3.824892399277629E-002
  6.747574010037852E-002
  0.416774995413296     
 -9.964065752415195E-002
  3.498615487316300E-003
  6.642954767257996E-002
  0.238657718770639     
  0.270423265538862     
 -7.535494275733852E-002
  0.172734279897461     
  0.194621179201387     
  0.398096973129220     
  6.415545139968376E-002
  6.513303521127810E-002
  0.259214171780223     
  0.201072595092284     
 -0.132198247529142     
 -0.192461366377281     
  4.086228971332679E-003
 -0.121196515287590     
 -0.284318587129164     
 -0.369756011048496     
  4.129463861678078E-003
 -0.199296440199065     
  0.122313944027044     
  0.125439174327652     
  0.144011090066064     
  0.276809350755024     
 -5.386771973447647E-002
 -5.210404429420433E-002
 -9.944095321561076E-003
  9.553913810376805E-002
 -0.507951648691198     
  0.258104458859485     
 -0.197906730136183     
 -3.093501308145028E-002
 -0.349431848137032     
 -0.107484221404222     
 -0.315989539162635     
 -4.121938236169505E-002
 -0.167941884558137     
 -8.071755755642987E-002
  0.212514866988975     
  0.314537787366003     
 -0.408659363305724     
  0.294344270253233     
 -0.123471068994859     
 -0.106200593476632     
  0.328922366373558     
 -0.308401164102711     
 -0.366393382153576     
  0.232233828258468     
  5.000435561705813E-002
 -0.104788742413100     
 -1.588871328839016E-002
 -7.016140990152939E-002
 -5.925017611155518E-002
 -0.553804288564607     
  0.284164852220324     
 -0.515604782228467     
  0.633744533462767     
  0.188306089361085     
 -0.178611682240292     
 -0.327013295996850     
  0.195235303134856     
 -0.205586147587049     
  0.110767271899263     
 -0.188390648296895     
  0.163791914567564     
 -9.595145184421026E-002
 -3.454150567285604E-003
 -7.188234257293263E-003
  0.117771484469999     
  0.107931263527784     
 -2.294078079966795E-002
 -0.257709802911381     
  9.938351303405220E-002
  4.823457488198629E-002
  0.180677400358765     
  0.176774467259839     
 -0.272058961124819     
  6.129221606248335E-002
  6.925736072704457E-002
  0.271311584230543     
 -0.123181244279718     
  5.218936967441358E-002
 -5.463051437548054E-002
 -0.247163296466668     
  2.729380028206374E-002
 -0.173093653923339     
  2.476196317218970E-002
 -0.570014279863643     
 -1.985814406652188E-002
  4.736784818017330E-002
  0.194961112462330     
  0.172717638080504     
  1.015784195062247E-003
  0.349661916592808     
  0.195307052871096     
  0.295520724309931     
 -0.174906776259603     
  7.692158187581631E-003
  0.518425836019395     
 -0.183687348852759     
  9.987038538782077E-002
  0.314933722332017     
  9.502911014832216E-002
  0.362792025571428     
 -0.466771195681420     
 -0.211322120208021     
  5.240918835862529E-002
  0.269046881081065     
 -0.387258134317098     
  0.394371444071601     
  6.326328817592369E-002
 -0.141372097520292     
  0.384962891186839     
  0.142723498495543     
 -1.019388921980609E-002
 -0.336837625229055     
  0.377019504520871     
 -0.308350781278447     
 -0.231301320889062     
 -6.378552715970970E-002
  5.930746125898619E-002
 -0.554311899641196     
  0.287027888755767     
 -1.990055681903147E-002
  0.224309382654451     
  2.339012945399356E-002
  0.426647808872787     
  0.194361240367350     
  0.436911308848012     
 -5.704354292585465E-002
  0.131572516422971     
 -1.728240597840650E-002
 -8.520397718448086E-002
  0.171079188148240     
  2.505972200881646E-002
 -0.231903214906910     
 -0.239882288427617     
  0.243854416086479     
 -0.140976950954782     
  9.984398529414588E-002
 -6.850038830585857E-002
 -0.291725300794976     
  0.193099132682115     
  0.153369290286502     
  5.535877517359916E-002
 -0.160382044154487     
 -0.236198462387527     
  4.946549622430310E-002
 -0.111906892932341     
 -0.166211430827794     
 -8.689678004390086E-002
  0.188305683833671     
 -4.338852761347345E-002
 -0.186208362734195     
 -3.632218278082804E-002
  0.258404452082623     
 -0.118945690732844     
 -4.348002059519953E-002
 -3.234387328050720E-002
 -0.121176583865289     
  4.021597173236588E-002
  0.300569083201659     
  0.445979192107806     
 -7.299351502168482E-002
  0.216336339481650     
 -0.618474143817233     
 -0.235631137217477     
 -0.321867987304989     
 -2.684713907106324E-002
  0.354094300387454     
 -0.346008838555486     
  5.028894602064076E-002
 -2.893199649171325E-002
  2.209510673919196E-002
 -0.221501227190344     
  0.143571801451055     
 -1.511156712669205E-002
  0.183536965790752     
 -2.392075225050352E-002
  0.178207997511994     
 -4.524381282106554E-002
  0.135888519719674     
 -8.160431617836865E-002
  0.188464203453299     
 -5.944388484815485E-002
 -0.432973923191987     
 -0.105718681902996     
  0.121546176329089     
  0.191741858733410     
  0.206613070869361     
  0.142636949254570     
  0.264449921873787     
 -9.378332284632042E-003
  0.101794131945371     
  3.841383055642714E-002
  2.700880119078964E-002
  0.355729007427039     
 -0.297332811651194     
 -3.599480616957931E-003
  0.369088220664545     
 -0.175762170802839     
 -0.381391261541773     
  0.147153142435913     
 -0.132789571170668     
  3.376604058797748E-003
 -3.160226277110242E-003
  8.074695484958323E-002
 -0.458577411546360     
 -0.183769041472022     
 -4.459906256894462E-002
 -0.167838155727362     
 -0.231267283972522     
 -7.771759096697517E-002
 -0.101277527881489     
  0.170778742921549     
 -0.246473682548623     
 -0.227524434709046     
  0.102849481101932     
 -0.301026624812883     
  0.211662301060373     
 -4.877403722719624E-002
  0.376429324278986     
  0.212038173592779     
  0.356028214907480     
 -0.148512647871257     
  0.279446826494664     
  0.265411099502561     
  0.190193507964787     
  0.323610870128140     
 -0.295795483967220     
  0.327981860757108     
  0.327966030308361     
  4.976744550957284E-002
  5.735241350137748E-002
  0.123992066667868     
  5.047235226956166E-002
  0.243381603085620     
 -0.183986486295973     
 -0.573196292347638     
 -8.888402576436671E-002
  0.131925548504359     
 -0.188478874654567     
 -0.411006830028323     
  0.189594710132226     
 -7.800189408447286E-002
 -1.012970425050199E-002
  5.650263891931285E-002
 -0.174576070116781     
 -0.127954132635453     
  7.430331558960054E-002
 -0.251884648550118     
 -4.953684286314432E-002
 -0.215261899375933     
  0.271810131066874     
 -0.253244350907524     
 -0.340376861323955     
  0.170126229610936     
  3.779598552699451E-002
 -0.286428780426177     
  0.256462105316199     
 -0.447841030868536     
  0.185829979223956     
 -0.306558065451623     
  7.693147701276162E-002
  0.160626469513457     
 -0.118596821646962     
  0.513334185532194     
  0.733723884811279     
 -6.928437438318416E-002
 -5.715474045858717E-002
  0.208892379389611     
 -0.396537882543148     
  0.151531256275031     
  0.324128713816222     
 -4.137617571253008E-002
  0.482415552681052     
 -0.197438565991354     
  1.165453237539342E-003
 -7.261137803588134E-002
 -0.141583882587109     
 -0.383072064835942     
 -4.260764763931302E-002
  0.469304257159919     
  0.180035476464036     
  6.821396450717342E-002
 -0.326708225758317     
 -0.577405909668100     
 -0.203688312182493     
 -3.094186913358511E-002
 -0.157804632829637     
 -0.446255352154357     
  0.101881375518296     
 -1.396134513699458E-002
 -0.221182788378509     
  0.300711990663947     
  0.248337970930763     
  0.343540734820948     
 -0.168316701284087     
  0.321656362526244     
  0.368825760493304     
 -0.299103719965888     
 -0.195155097102192     
 -9.753876693267190E-002
  0.163099123331174     
 -1.939297999907827E-002
  5.953467115846683E-003
 -0.247231383861081     
 -0.327946660120331     
 -5.549489584115840E-002
 -0.403203653210182     
 -0.238215900755323     
 -0.374536801653676     
  0.313294441337270     
 -1.826063262898359E-002
 -3.617630174861500E-002
  0.438103735071921     
  0.280307972175421     
 -0.331004232402338     
  0.350787022386056     
 -0.120943103436887     
 -4.285325278575690E-002
 -0.379967268714187     
  0.149601527098403     
 -7.301386688106551E-002
  1.864970690721717E-002
 -0.107078253265581     
  0.109397395437727     
 -0.338161485626790     
  0.434868731812030     
 -2.041958353488307E-002
 -0.351889593553440     
 -5.203246125450083E-002
 -3.354197998103165E-002
 -0.289684578632570     
  0.429865806698134     
  6.510609567713681E-003
 -0.249920337097918     
 -0.139085359451322     
 -0.475431683194687     
  7.822834318413744E-003
  6.848182518484217E-002
 -0.207714011591603     
 -0.159041420751198     
 -6.407529210104403E-002
  0.134746815400732     
 -9.060437548893166E-003
 -0.155973781585874     
 -0.680359577774246     
  5.672165506577759E-002
  9.573973151626550E-002
  6.086722921915182E-002
  0.500907680175652     
  0.398742385074597     
  0.157449076226924     
 -0.296235100952406     
  0.294026368039393     
 -9.829610504033305E-002
  0.120789299384721     
  6.476227985096878E-003
  0.218598626300463     
 -0.456577453767536     
 -1.425721163877566E-002
  0.251723695136821     
 -0.153726612330633     
  7.672265904570572E-002
 -0.190351551262837     
 -0.105287389256791     
 -3.426363655052810E-002
  8.547015844797065E-002
  0.174800004667674     
 -0.282356339273072     
  2.585047511201985E-002
  0.337797271814054     
  7.559589526198184E-002
 -0.152028071825045     
 -0.309749887237673     
 -0.115578787005065     
  0.169280907967864     
  0.353513102665175     
  0.358857574796554     
  0.219615415944229     
  0.242753141275885     
 -0.100842436502724     
 -0.160638873106475     
 -0.203432076242585     
  5.167543575765002E-002
 -0.409437210061475     
 -0.116950667228597     
  0.144940564231010     
  0.170414115174701     
 -0.361299299078347     
 -0.130820840314959     
 -0.220524562613130     
  0.178441208501620     
  0.319675182604196     
  0.243602615273271     
  0.204001140794465     
  0.114640431102792     
 -0.147821852289464     
  0.293900330802960     
 -0.314462809482973     
 -7.770226709550312E-002
  5.296246278588731E-002
  0.131205004101380     
  0.279941345738993     
  0.389519948874756     
  0.189410729773082     
  0.209994196459133     
 -0.319426058918771     
 -4.376332586138042E-002
  0.123001660485475     
  0.163123287708756     
 -0.176197345469232     
 -0.121866188534498     
 -4.597477476625125E-002
 -0.203815404887427     
  0.157145648958555     
  0.109917984370867     
  3.629256838281637E-002
 -0.187782848681177     
 -9.348943602222335E-003
  0.109078219865587     
 -3.193343594392315E-002
  0.165152957205220     
  0.417883690971306     
 -6.173354212678814E-003
  5.042040911252016E-002
 -0.340231049073880     
 -0.137532224459948     
 -0.143369766572051     
  7.060832563309381E-002
 -0.209858659210380     
 
 -0.251742099999781     
 -7.451852922447263E-003
 -0.442399356209020     
  0.249341064576004     
 -0.198710581818295     
 -0.188197206839825     
 -0.162827658783201     
  0.218535613539852     
  3.113264851101710E-002
 -0.228632373472703     
  0.340889021605802     
 -0.366650102074051     
 -0.252430866040409     
 -1.948079415206248E-002
 -9.704166491650522E-002
  0.215529934462994     
 -0.411646744365567     
 -0.173462064955381     
  0.295593841864285     
 -0.301422322098464     
 -0.128625658513420     
 -3.780775731437027E-002
  0.193017992198609     
  0.142518985461164     
  8.229861952599930E-002
 
  -85.3304556225283     
   58.8904212453546     
   114.019881742048     
  -110.652570635115     
  -144.634822761103     
  -36.9460088410705     
  -130.731230262904     
   23.8770938090080     
  -54.7507720694425     
   37.2122440413698     
   156.403135440455     
  -82.2712343317343     
   99.5709205891747     
   4.14504472599849     
  -116.363166667211     
   16.5811252712876     
   51.1735923899512     
  -16.3962950206800     
  -28.2109399133792     
   72.8271388863140     
  -115.054525648812     
   27.9858301491980     
   9.53957259498469     
  -94.8791612678601     
  -73.6493140367721     
 
  -8.52069460000000     
 
  tansig  tansig 
